<?xml version="1.0"?>
<opencv_storage>
<my_svm type_id="opencv-ml-svm">
  <svm_type>C_SVC</svm_type>
  <kernel><type>RBF</type>
    <gamma>7.8125000000000000e-003</gamma></kernel>
  <C>32.</C>
  <term_criteria><epsilon>1.1920928955078125e-007</epsilon>
    <iterations>1000</iterations></term_criteria>
  <var_all>50</var_all>
  <var_count>50</var_count>
  <class_count>34</class_count>
  <class_labels type_id="opencv-matrix">
    <rows>1</rows>
    <cols>34</cols>
    <dt>i</dt>
    <data>
      0 1 2 3 4 5 6 7 8 9 10 11 12 13 14 15 16 17 18 19 20 21 22 23 24
      25 26 27 28 29 30 31 32 33</data></class_labels>
  <sv_total>1781</sv_total>
  <support_vectors>
    <_>
      1.87500000e-001 7.50000000e-001 1. 7.50000000e-001 6.25000000e-002
      6.25000000e-001 1. 1. 1. 3.75000000e-001 7.50000000e-001
      8.12500000e-001 1.25000000e-001 8.12500000e-001 5.00000000e-001
      7.50000000e-001 7.50000000e-001 0. 7.50000000e-001 6.87500000e-001
      6.87500000e-001 7.50000000e-001 0. 7.50000000e-001 7.50000000e-001
      5.00000000e-001 7.50000000e-001 0. 5.00000000e-001 7.50000000e-001
      5.00000000e-001 1. 0. 5.00000000e-001 1. 3.75000000e-001 1. 0.
      3.12500000e-001 1. 6.25000000e-002 1. 6.25000000e-001
      9.37500000e-001 8.75000000e-001 0. 5.62500000e-001 1. 1.
      4.37500000e-001</_>
    <_>
      1.25000000e-001 6.87500000e-001 1. 8.75000000e-001 1.87500000e-001
      6.87500000e-001 8.75000000e-001 2.50000000e-001 8.12500000e-001
      6.87500000e-001 7.50000000e-001 2.50000000e-001 0. 2.50000000e-001
      1. 9.37500000e-001 2.50000000e-001 0. 2.50000000e-001 1. 1.
      2.50000000e-001 0. 2.50000000e-001 1. 1. 2.50000000e-001 0.
      2.50000000e-001 8.75000000e-001 1. 2.50000000e-001 0.
      3.12500000e-001 7.50000000e-001 1. 2.50000000e-001 0.
      5.00000000e-001 7.50000000e-001 6.87500000e-001 5.00000000e-001 0.
      8.75000000e-001 5.62500000e-001 1.25000000e-001 1. 1.
      8.12500000e-001 6.25000000e-002</_>
    <_>
      1.25000000e-001 8.12500000e-001 1. 6.87500000e-001 0.
      7.50000000e-001 6.87500000e-001 1.87500000e-001 8.12500000e-001
      5.00000000e-001 1. 1.87500000e-001 0. 3.12500000e-001
      7.50000000e-001 1. 0. 0. 2.50000000e-001 7.50000000e-001 1. 0. 0.
      2.50000000e-001 7.50000000e-001 1. 0. 0. 4.37500000e-001
      7.50000000e-001 1. 0. 0. 5.00000000e-001 7.50000000e-001 1. 0. 0.
      6.25000000e-001 7.50000000e-001 8.75000000e-001 6.87500000e-001
      4.37500000e-001 9.37500000e-001 4.37500000e-001 1.87500000e-001
      8.75000000e-001 9.37500000e-001 5.62500000e-001 6.25000000e-002</_>
    <_>
      6.25000000e-002 5.62500000e-001 1. 5.62500000e-001 6.25000000e-002
      5.00000000e-001 9.37500000e-001 3.75000000e-001 8.75000000e-001
      6.25000000e-001 7.50000000e-001 3.75000000e-001 0. 1.87500000e-001
      1. 7.50000000e-001 2.50000000e-001 0. 0. 1. 7.50000000e-001
      2.50000000e-001 0. 0. 1. 7.50000000e-001 2.50000000e-001 0. 0.
      7.50000000e-001 7.50000000e-001 2.50000000e-001 0. 0.
      8.75000000e-001 7.50000000e-001 2.50000000e-001 0. 6.25000000e-002
      7.50000000e-001 7.50000000e-001 5.62500000e-001 1.87500000e-001
      6.25000000e-001 6.87500000e-001 3.12500000e-001 8.75000000e-001 1.
      9.37500000e-001 1.87500000e-001</_>
    <_>
      0. 5.00000000e-001 7.50000000e-001 5.62500000e-001 0.
      5.00000000e-001 9.37500000e-001 3.12500000e-001 8.12500000e-001
      5.62500000e-001 7.50000000e-001 3.75000000e-001 0. 2.50000000e-001
      7.50000000e-001 7.50000000e-001 2.50000000e-001 0. 1.25000000e-001
      7.50000000e-001 7.50000000e-001 2.50000000e-001 0. 0.
      7.50000000e-001 7.50000000e-001 2.50000000e-001 0. 6.25000000e-002
      7.50000000e-001 7.50000000e-001 2.50000000e-001 0. 2.50000000e-001
      7.50000000e-001 7.50000000e-001 2.50000000e-001 0. 1.87500000e-001
      7.50000000e-001 6.87500000e-001 6.25000000e-001 3.12500000e-001
      7.50000000e-001 5.00000000e-001 3.12500000e-001 9.37500000e-001 1.
      8.12500000e-001 6.25000000e-002</_>
    <_>
      6.25000000e-002 6.87500000e-001 9.37500000e-001 1. 5.62500000e-001
      5.62500000e-001 1. 2.50000000e-001 9.37500000e-001 8.75000000e-001
      7.50000000e-001 7.50000000e-001 0. 6.87500000e-001 7.50000000e-001
      7.50000000e-001 7.50000000e-001 0. 5.00000000e-001 7.50000000e-001
      7.50000000e-001 7.50000000e-001 0. 5.00000000e-001 8.75000000e-001
      7.50000000e-001 7.50000000e-001 0. 5.00000000e-001 1.
      9.37500000e-001 7.50000000e-001 0. 5.00000000e-001 1.
      7.50000000e-001 9.37500000e-001 6.25000000e-002 6.25000000e-001
      8.75000000e-001 4.37500000e-001 1. 8.75000000e-001 1.
      6.87500000e-001 6.25000000e-002 8.12500000e-001 1. 8.75000000e-001
      3.12500000e-001</_>
    <_>
      7.50000000e-001 7.50000000e-001 2.50000000e-001 8.12500000e-001
      6.25000000e-001 1. 2.50000000e-001 0. 3.75000000e-001 1. 1.
      2.50000000e-001 0. 2.50000000e-001 1. 1. 1.25000000e-001 0.
      2.50000000e-001 1. 1. 0. 0. 2.50000000e-001 1. 1. 0. 0.
      2.50000000e-001 1. 1. 0. 0. 2.50000000e-001 1. 1. 1.25000000e-001
      0. 2.50000000e-001 1. 9.37500000e-001 6.25000000e-001
      2.50000000e-001 8.12500000e-001 9.37500000e-001 2.50000000e-001
      8.75000000e-001 9.37500000e-001 8.12500000e-001 3.12500000e-001</_>
    <_>
      7.50000000e-001 1. 1. 8.75000000e-001 6.25000000e-002 1.
      7.50000000e-001 5.62500000e-001 1. 4.37500000e-001 1.
      2.50000000e-001 0. 7.50000000e-001 6.87500000e-001 1.
      2.50000000e-001 0. 7.50000000e-001 7.50000000e-001 1.
      2.50000000e-001 0. 6.87500000e-001 7.50000000e-001 1.
      4.37500000e-001 0. 5.00000000e-001 8.12500000e-001 1.
      5.00000000e-001 0. 5.00000000e-001 1. 1. 5.00000000e-001 0.
      5.00000000e-001 1. 9.37500000e-001 6.87500000e-001 2.50000000e-001
      6.87500000e-001 8.75000000e-001 3.12500000e-001 1. 1. 1.
      3.12500000e-001</_>
    <_>
      6.87500000e-001 9.37500000e-001 4.37500000e-001 9.37500000e-001
      2.50000000e-001 1. 1.25000000e-001 0. 3.75000000e-001
      5.00000000e-001 1. 0. 0. 2.50000000e-001 7.50000000e-001 1.
      1.25000000e-001 0. 2.50000000e-001 7.50000000e-001 8.12500000e-001
      2.50000000e-001 0. 6.25000000e-002 1. 6.87500000e-001
      2.50000000e-001 0. 0. 1. 5.00000000e-001 3.75000000e-001 0. 0.
      8.75000000e-001 5.00000000e-001 5.00000000e-001 0. 0.
      8.12500000e-001 3.12500000e-001 8.12500000e-001 3.75000000e-001
      5.00000000e-001 9.37500000e-001 0. 6.25000000e-001 8.75000000e-001
      8.75000000e-001 2.50000000e-001</_>
    <_>
      2.50000000e-001 1. 1. 1. 5.62500000e-001 5.62500000e-001 1.
      3.12500000e-001 8.12500000e-001 8.75000000e-001 7.50000000e-001
      7.50000000e-001 0. 4.37500000e-001 1. 7.50000000e-001
      7.50000000e-001 0. 3.12500000e-001 1. 7.50000000e-001
      7.50000000e-001 0. 3.12500000e-001 1. 7.50000000e-001
      7.50000000e-001 0. 5.00000000e-001 1. 7.50000000e-001
      7.50000000e-001 0. 5.00000000e-001 1. 7.50000000e-001
      7.50000000e-001 0. 5.00000000e-001 1. 6.25000000e-001
      9.37500000e-001 5.00000000e-001 9.37500000e-001 8.75000000e-001
      2.50000000e-001 9.37500000e-001 1. 1. 3.12500000e-001</_>
    <_>
      6.25000000e-002 6.87500000e-001 1. 6.87500000e-001 0.
      5.00000000e-001 9.37500000e-001 3.75000000e-001 7.50000000e-001
      5.62500000e-001 7.50000000e-001 5.00000000e-001 0. 2.50000000e-001
      1. 9.37500000e-001 5.00000000e-001 0. 2.50000000e-001 1. 1.
      3.12500000e-001 0. 2.50000000e-001 1. 1. 2.50000000e-001 0.
      2.50000000e-001 1. 1. 2.50000000e-001 0. 2.50000000e-001 1. 1.
      2.50000000e-001 0. 5.00000000e-001 9.37500000e-001 8.75000000e-001
      6.87500000e-001 3.75000000e-001 9.37500000e-001 6.25000000e-001
      1.87500000e-001 6.87500000e-001 1. 7.50000000e-001 1.25000000e-001</_>
    <_>
      9.37500000e-001 1. 1. 9.37500000e-001 1.87500000e-001 1.
      9.37500000e-001 6.25000000e-001 1. 7.50000000e-001 1.
      7.50000000e-001 0. 6.25000000e-001 1. 1. 7.50000000e-001 0.
      5.00000000e-001 1. 7.50000000e-001 7.50000000e-001 0.
      5.00000000e-001 1. 7.50000000e-001 7.50000000e-001 0.
      3.75000000e-001 1. 7.50000000e-001 8.12500000e-001 0.
      2.50000000e-001 1. 7.50000000e-001 1. 6.25000000e-002
      5.62500000e-001 1. 4.37500000e-001 1. 8.75000000e-001
      9.37500000e-001 1. 0. 6.25000000e-001 1. 1. 4.37500000e-001</_>
    <_>
      5.62500000e-001 9.37500000e-001 1. 1. 3.75000000e-001 1.
      8.12500000e-001 2.50000000e-001 8.12500000e-001 9.37500000e-001 1.
      5.00000000e-001 0. 5.00000000e-001 1. 1. 5.00000000e-001 0.
      4.37500000e-001 1. 1. 5.00000000e-001 0. 2.50000000e-001 1. 1.
      5.00000000e-001 0. 2.50000000e-001 1. 1. 5.00000000e-001 0.
      2.50000000e-001 1. 8.75000000e-001 7.50000000e-001 0.
      3.75000000e-001 1. 5.00000000e-001 1. 9.37500000e-001 1. 1.
      7.50000000e-001 1. 1. 1. 9.37500000e-001</_>
    <_>
      3.75000000e-001 8.75000000e-001 1. 8.12500000e-001 1.87500000e-001
      9.37500000e-001 7.50000000e-001 1.25000000e-001 9.37500000e-001
      6.87500000e-001 9.37500000e-001 5.00000000e-001 0. 5.00000000e-001
      7.50000000e-001 8.12500000e-001 5.00000000e-001 0. 5.00000000e-001
      7.50000000e-001 7.50000000e-001 5.00000000e-001 0. 5.00000000e-001
      7.50000000e-001 7.50000000e-001 5.00000000e-001 0. 4.37500000e-001
      8.75000000e-001 7.50000000e-001 6.25000000e-001 0. 2.50000000e-001
      1. 6.87500000e-001 9.37500000e-001 2.50000000e-001 5.62500000e-001
      8.12500000e-001 1.87500000e-001 9.37500000e-001 1. 1.
      7.50000000e-001 1.87500000e-001 5.00000000e-001 1. 9.37500000e-001
      4.37500000e-001</_>
    <_>
      3.12500000e-001 1. 1. 6.87500000e-001 0. 9.37500000e-001
      9.37500000e-001 6.87500000e-001 9.37500000e-001 3.12500000e-001 1.
      7.50000000e-001 0. 7.50000000e-001 9.37500000e-001 1.
      7.50000000e-001 0. 5.00000000e-001 1. 8.75000000e-001
      7.50000000e-001 0. 5.00000000e-001 1. 5.62500000e-001 1. 0.
      5.00000000e-001 1. 5.00000000e-001 1. 0. 3.12500000e-001 1.
      5.00000000e-001 1. 1.25000000e-001 3.12500000e-001 1.
      2.50000000e-001 1. 5.62500000e-001 8.12500000e-001 1. 0.
      3.75000000e-001 9.37500000e-001 9.37500000e-001 6.25000000e-001</_>
    <_>
      3.12500000e-001 1. 1. 8.12500000e-001 0. 7.50000000e-001
      9.37500000e-001 5.00000000e-001 9.37500000e-001 3.12500000e-001
      8.75000000e-001 5.62500000e-001 0. 7.50000000e-001 5.00000000e-001
      7.50000000e-001 6.25000000e-001 0. 5.00000000e-001 5.00000000e-001
      7.50000000e-001 7.50000000e-001 0. 5.00000000e-001 5.00000000e-001
      7.50000000e-001 8.12500000e-001 0. 5.00000000e-001 7.50000000e-001
      5.00000000e-001 1. 0. 4.37500000e-001 8.75000000e-001
      3.75000000e-001 1. 0. 3.75000000e-001 1. 6.25000000e-002
      9.37500000e-001 5.00000000e-001 8.12500000e-001 8.12500000e-001 0.
      5.00000000e-001 1. 8.75000000e-001 1.87500000e-001</_>
    <_>
      3.75000000e-001 1. 1. 8.12500000e-001 6.25000000e-002
      9.37500000e-001 7.50000000e-001 1.25000000e-001 9.37500000e-001
      4.37500000e-001 1. 5.00000000e-001 0. 5.62500000e-001
      7.50000000e-001 1. 5.00000000e-001 0. 5.00000000e-001
      8.75000000e-001 1. 5.00000000e-001 0. 3.12500000e-001 1.
      8.75000000e-001 5.00000000e-001 0. 2.50000000e-001 1.
      7.50000000e-001 6.87500000e-001 0. 2.50000000e-001 1.
      6.87500000e-001 8.12500000e-001 0. 3.12500000e-001 1.
      4.37500000e-001 1. 5.00000000e-001 8.75000000e-001 1. 0.
      4.37500000e-001 9.37500000e-001 9.37500000e-001 6.25000000e-001</_>
    <_>
      6.25000000e-001 1. 1. 9.37500000e-001 1.87500000e-001 1.
      1.87500000e-001 6.25000000e-002 6.87500000e-001 8.12500000e-001 1.
      0. 0. 2.50000000e-001 1. 1. 0. 0. 0. 1. 1. 1.87500000e-001 0. 0.
      1. 1. 2.50000000e-001 0. 0. 9.37500000e-001 1. 2.50000000e-001 0.
      0. 7.50000000e-001 9.37500000e-001 5.00000000e-001 0. 0.
      7.50000000e-001 5.00000000e-001 9.37500000e-001 5.00000000e-001
      5.62500000e-001 1. 0. 3.75000000e-001 8.75000000e-001
      6.87500000e-001 3.75000000e-001</_>
    <_>
      3.75000000e-001 8.75000000e-001 9.37500000e-001 5.62500000e-001 0.
      8.75000000e-001 8.12500000e-001 5.00000000e-001 9.37500000e-001
      3.75000000e-001 1. 3.75000000e-001 0. 5.62500000e-001
      7.50000000e-001 7.50000000e-001 4.37500000e-001 0. 5.00000000e-001
      7.50000000e-001 7.50000000e-001 5.00000000e-001 0. 5.00000000e-001
      7.50000000e-001 7.50000000e-001 5.00000000e-001 0. 4.37500000e-001
      8.12500000e-001 7.50000000e-001 5.00000000e-001 0. 2.50000000e-001
      1. 5.62500000e-001 5.00000000e-001 0. 3.12500000e-001 1.
      3.12500000e-001 8.75000000e-001 2.50000000e-001 6.87500000e-001
      8.12500000e-001 0. 6.25000000e-001 1. 8.75000000e-001
      1.87500000e-001</_>
    <_>
      3.12500000e-001 8.75000000e-001 1. 8.12500000e-001 6.25000000e-002
      9.37500000e-001 8.12500000e-001 2.50000000e-001 8.12500000e-001
      5.00000000e-001 1. 4.37500000e-001 0. 5.00000000e-001
      7.50000000e-001 1. 5.00000000e-001 0. 5.00000000e-001
      7.50000000e-001 8.12500000e-001 5.00000000e-001 0. 3.75000000e-001
      7.50000000e-001 7.50000000e-001 5.00000000e-001 0. 2.50000000e-001
      7.50000000e-001 7.50000000e-001 5.00000000e-001 0. 2.50000000e-001
      1. 7.50000000e-001 5.00000000e-001 0. 2.50000000e-001 1.
      3.75000000e-001 8.12500000e-001 0. 3.12500000e-001 8.12500000e-001
      0. 6.87500000e-001 6.87500000e-001 1.25000000e-001 6.25000000e-002</_>
    <_>
      6.25000000e-002 4.37500000e-001 8.12500000e-001 4.37500000e-001 0.
      6.87500000e-001 1. 9.37500000e-001 1. 5.00000000e-001
      8.75000000e-001 5.62500000e-001 0. 5.62500000e-001 7.50000000e-001
      7.50000000e-001 5.00000000e-001 0. 5.00000000e-001 7.50000000e-001
      7.50000000e-001 5.00000000e-001 0. 5.00000000e-001 8.75000000e-001
      7.50000000e-001 5.00000000e-001 0. 5.00000000e-001 1.
      7.50000000e-001 5.00000000e-001 0. 3.75000000e-001 1.
      7.50000000e-001 6.25000000e-001 0. 3.12500000e-001 1.
      4.37500000e-001 8.75000000e-001 2.50000000e-001 6.87500000e-001
      8.12500000e-001 6.25000000e-002 8.12500000e-001 1. 8.75000000e-001
      1.87500000e-001</_>
    <_>
      1.25000000e-001 1. 1. 8.75000000e-001 0. 6.87500000e-001
      9.37500000e-001 5.62500000e-001 1. 4.37500000e-001 1.
      4.37500000e-001 0. 7.50000000e-001 5.62500000e-001 1.
      3.75000000e-001 0. 5.00000000e-001 7.50000000e-001 9.37500000e-001
      5.00000000e-001 0. 5.00000000e-001 7.50000000e-001 8.75000000e-001
      5.00000000e-001 0. 5.00000000e-001 7.50000000e-001 7.50000000e-001
      5.00000000e-001 0. 5.00000000e-001 7.50000000e-001 7.50000000e-001
      5.62500000e-001 0. 6.25000000e-001 7.50000000e-001 5.00000000e-001
      1. 6.25000000e-001 1. 6.25000000e-001 0. 8.12500000e-001 1.
      9.37500000e-001 6.25000000e-002</_>
    <_>
      0. 6.87500000e-001 1. 8.12500000e-001 0. 5.62500000e-001 1.
      9.37500000e-001 1. 5.00000000e-001 7.50000000e-001 6.87500000e-001
      0. 6.87500000e-001 8.12500000e-001 7.50000000e-001 5.00000000e-001
      0. 5.00000000e-001 1. 7.50000000e-001 5.00000000e-001 0.
      5.00000000e-001 1. 7.50000000e-001 5.00000000e-001 0.
      5.00000000e-001 7.50000000e-001 9.37500000e-001 5.00000000e-001 0.
      6.87500000e-001 6.87500000e-001 1. 3.12500000e-001 6.25000000e-002
      9.37500000e-001 3.75000000e-001 5.62500000e-001 9.37500000e-001
      8.75000000e-001 1. 1.25000000e-001 6.25000000e-002 8.75000000e-001
      1. 4.37500000e-001 0.</_>
    <_>
      0. 1.25000000e-001 8.12500000e-001 1. 4.37500000e-001 0.
      8.75000000e-001 6.87500000e-001 5.00000000e-001 1. 1.25000000e-001
      1. 0. 1.25000000e-001 1. 4.37500000e-001 7.50000000e-001 0.
      2.50000000e-001 9.37500000e-001 5.00000000e-001 7.50000000e-001 0.
      3.75000000e-001 7.50000000e-001 5.62500000e-001 5.62500000e-001 0.
      5.00000000e-001 5.00000000e-001 7.50000000e-001 3.75000000e-001 0.
      6.87500000e-001 2.50000000e-001 9.37500000e-001 2.50000000e-001
      6.25000000e-002 8.75000000e-001 1.25000000e-001 6.87500000e-001
      8.12500000e-001 9.37500000e-001 8.12500000e-001 0. 1.87500000e-001
      8.12500000e-001 3.75000000e-001 0. 0.</_>
    <_>
      1.25000000e-001 5.62500000e-001 9.37500000e-001 4.37500000e-001 0.
      7.50000000e-001 5.00000000e-001 3.12500000e-001 8.12500000e-001
      3.12500000e-001 1. 0. 0. 5.00000000e-001 5.00000000e-001 1. 0. 0.
      5.00000000e-001 6.87500000e-001 1. 0. 0. 5.00000000e-001
      7.50000000e-001 1. 0. 0. 5.00000000e-001 7.50000000e-001 1. 0. 0.
      4.37500000e-001 7.50000000e-001 1. 2.50000000e-001 0.
      5.00000000e-001 8.12500000e-001 8.12500000e-001 6.87500000e-001
      1.87500000e-001 8.12500000e-001 8.12500000e-001 1.87500000e-001
      8.75000000e-001 1. 7.50000000e-001 3.75000000e-001</_>
    <_>
      0. 6.25000000e-002 7.50000000e-001 1.87500000e-001 0. 0.
      8.12500000e-001 3.75000000e-001 8.75000000e-001 1.25000000e-001
      2.50000000e-001 5.00000000e-001 6.25000000e-002 5.00000000e-001
      2.50000000e-001 2.50000000e-001 3.12500000e-001 2.50000000e-001
      3.12500000e-001 2.50000000e-001 2.50000000e-001 2.50000000e-001 0.
      5.00000000e-001 2.50000000e-001 2.50000000e-001 2.50000000e-001 0.
      5.00000000e-001 2.50000000e-001 2.50000000e-001 2.50000000e-001 0.
      5.00000000e-001 2.50000000e-001 2.50000000e-001 3.12500000e-001 0.
      5.00000000e-001 2.50000000e-001 1.25000000e-001 8.12500000e-001
      5.00000000e-001 8.12500000e-001 0. 0. 2.50000000e-001
      5.62500000e-001 1.87500000e-001 6.25000000e-002</_>
    <_>
      1.87500000e-001 8.12500000e-001 9.37500000e-001 1.87500000e-001
      6.25000000e-002 8.12500000e-001 1.87500000e-001 1.25000000e-001
      8.75000000e-001 6.25000000e-002 8.12500000e-001 0. 0.
      6.87500000e-001 2.50000000e-001 9.37500000e-001 0. 0.
      5.00000000e-001 2.50000000e-001 8.75000000e-001 0. 0.
      5.00000000e-001 2.50000000e-001 7.50000000e-001 0. 0.
      5.00000000e-001 4.37500000e-001 7.50000000e-001 0. 0.
      5.00000000e-001 5.00000000e-001 7.50000000e-001 0. 0.
      5.00000000e-001 5.00000000e-001 5.62500000e-001 6.25000000e-001
      2.50000000e-001 8.12500000e-001 1.87500000e-001 6.25000000e-002
      6.25000000e-001 7.50000000e-001 5.62500000e-001 0.</_>
    <_>
      0. 3.12500000e-001 6.87500000e-001 8.75000000e-001 7.50000000e-001
      6.25000000e-001 7.50000000e-001 6.25000000e-001 8.75000000e-001
      1.87500000e-001 9.37500000e-001 0. 0. 9.37500000e-001 0.
      7.50000000e-001 1.25000000e-001 0. 7.50000000e-001 0.
      7.50000000e-001 1.25000000e-001 0. 7.50000000e-001 0.
      7.50000000e-001 0. 0. 7.50000000e-001 2.50000000e-001
      7.50000000e-001 1.25000000e-001 0. 8.12500000e-001 1.87500000e-001
      8.12500000e-001 0. 0. 1. 0. 7.50000000e-001 5.62500000e-001
      5.00000000e-001 9.37500000e-001 0. 1.87500000e-001 8.75000000e-001
      8.75000000e-001 2.50000000e-001 0.</_>
    <_>
      2.50000000e-001 8.75000000e-001 7.50000000e-001 7.50000000e-001
      1.25000000e-001 6.87500000e-001 2.50000000e-001 0. 8.75000000e-001
      1.25000000e-001 7.50000000e-001 0. 0. 7.50000000e-001
      2.50000000e-001 7.50000000e-001 0. 0. 7.50000000e-001
      2.50000000e-001 7.50000000e-001 0. 0. 7.50000000e-001
      2.50000000e-001 7.50000000e-001 0. 0. 7.50000000e-001
      2.50000000e-001 7.50000000e-001 0. 0. 7.50000000e-001
      2.50000000e-001 7.50000000e-001 6.25000000e-002 0. 8.75000000e-001
      2.50000000e-001 6.87500000e-001 8.12500000e-001 6.87500000e-001
      9.37500000e-001 0. 6.25000000e-002 7.50000000e-001 8.12500000e-001
      3.12500000e-001 1.25000000e-001</_>
    <_>
      6.25000000e-002 8.12500000e-001 6.87500000e-001 6.87500000e-001
      5.62500000e-001 4.37500000e-001 6.25000000e-001 0. 0.
      9.37500000e-001 6.25000000e-001 3.12500000e-001 0. 0. 1.
      7.50000000e-001 2.50000000e-001 0. 1.25000000e-001 8.12500000e-001
      7.50000000e-001 2.50000000e-001 0. 2.50000000e-001 7.50000000e-001
      8.75000000e-001 2.50000000e-001 0. 2.50000000e-001 7.50000000e-001
      1. 6.25000000e-002 0. 4.37500000e-001 6.87500000e-001 1. 0. 0.
      5.00000000e-001 5.00000000e-001 8.75000000e-001 5.00000000e-001
      3.12500000e-001 8.75000000e-001 2.50000000e-001 1.87500000e-001
      6.25000000e-001 6.87500000e-001 1.87500000e-001 0.</_>
    <_>
      6.25000000e-001 1. 1. 1. 2.50000000e-001 9.37500000e-001
      8.12500000e-001 3.12500000e-001 9.37500000e-001 7.50000000e-001 1.
      5.00000000e-001 0. 5.62500000e-001 7.50000000e-001 1.
      5.00000000e-001 0. 5.00000000e-001 8.75000000e-001 1.
      5.00000000e-001 0. 5.00000000e-001 1. 1. 5.00000000e-001 0.
      5.00000000e-001 1. 1. 5.00000000e-001 0. 5.00000000e-001 1. 1.
      5.00000000e-001 0. 5.00000000e-001 1. 8.75000000e-001
      8.12500000e-001 3.12500000e-001 8.12500000e-001 8.75000000e-001
      5.00000000e-001 1. 1. 9.37500000e-001 3.75000000e-001</_>
    <_>
      6.25000000e-002 7.50000000e-001 5.00000000e-001 3.75000000e-001 0.
      3.75000000e-001 1. 1. 1. 3.75000000e-001 6.25000000e-001
      8.12500000e-001 6.25000000e-002 9.37500000e-001 5.00000000e-001
      7.50000000e-001 7.50000000e-001 0. 7.50000000e-001 5.00000000e-001
      7.50000000e-001 7.50000000e-001 0. 7.50000000e-001 6.87500000e-001
      7.50000000e-001 7.50000000e-001 0. 7.50000000e-001 7.50000000e-001
      7.50000000e-001 7.50000000e-001 0. 7.50000000e-001 7.50000000e-001
      5.62500000e-001 8.75000000e-001 6.25000000e-002 8.75000000e-001
      7.50000000e-001 1.25000000e-001 9.37500000e-001 9.37500000e-001 1.
      3.75000000e-001 0. 2.50000000e-001 7.50000000e-001 4.37500000e-001
      0.</_>
    <_>
      4.37500000e-001 1. 9.37500000e-001 5.62500000e-001 0.
      9.37500000e-001 7.50000000e-001 5.62500000e-001 1. 3.75000000e-001
      1. 2.50000000e-001 0. 5.62500000e-001 5.00000000e-001 1.
      3.12500000e-001 0. 5.00000000e-001 5.00000000e-001 1.
      5.00000000e-001 0. 5.00000000e-001 7.50000000e-001 1.
      5.00000000e-001 0. 5.00000000e-001 9.37500000e-001 8.12500000e-001
      5.00000000e-001 0. 3.75000000e-001 1. 7.50000000e-001
      5.62500000e-001 0. 2.50000000e-001 1. 3.75000000e-001
      9.37500000e-001 2.50000000e-001 6.25000000e-001 9.37500000e-001 0.
      5.00000000e-001 1. 1. 2.50000000e-001</_>
    <_>
      0. 7.50000000e-001 8.75000000e-001 8.12500000e-001 1.25000000e-001
      6.87500000e-001 5.00000000e-001 6.25000000e-002 8.75000000e-001
      6.25000000e-001 7.50000000e-001 5.00000000e-001 0. 5.00000000e-001
      7.50000000e-001 7.50000000e-001 5.00000000e-001 0. 5.00000000e-001
      8.75000000e-001 1. 3.12500000e-001 0. 4.37500000e-001
      9.37500000e-001 1. 4.37500000e-001 0. 5.00000000e-001 1. 1.
      5.00000000e-001 0. 5.00000000e-001 1. 8.75000000e-001
      5.00000000e-001 0. 6.25000000e-001 7.50000000e-001 6.87500000e-001
      8.75000000e-001 5.00000000e-001 9.37500000e-001 6.87500000e-001
      6.25000000e-002 6.25000000e-001 1. 7.50000000e-001 1.87500000e-001</_>
    <_>
      1.87500000e-001 8.12500000e-001 9.37500000e-001 4.37500000e-001 0.
      6.87500000e-001 8.12500000e-001 5.00000000e-001 9.37500000e-001
      3.12500000e-001 1. 3.75000000e-001 0. 6.25000000e-001
      6.87500000e-001 1. 2.50000000e-001 0. 5.00000000e-001
      7.50000000e-001 8.75000000e-001 5.00000000e-001 0. 5.00000000e-001
      7.50000000e-001 7.50000000e-001 5.00000000e-001 0. 5.00000000e-001
      7.50000000e-001 7.50000000e-001 5.00000000e-001 0. 5.00000000e-001
      8.75000000e-001 7.50000000e-001 5.00000000e-001 0. 5.00000000e-001
      1. 6.25000000e-001 8.75000000e-001 5.00000000e-001 8.12500000e-001
      8.12500000e-001 6.25000000e-002 6.87500000e-001 1. 9.37500000e-001
      3.12500000e-001</_>
    <_>
      6.87500000e-001 1. 8.12500000e-001 5.00000000e-001 0.
      9.37500000e-001 8.12500000e-001 6.87500000e-001 1. 3.75000000e-001
      1. 3.12500000e-001 0. 8.12500000e-001 7.50000000e-001 1.
      2.50000000e-001 0. 5.00000000e-001 8.12500000e-001 1.
      2.50000000e-001 0. 5.00000000e-001 1. 1. 2.50000000e-001 0.
      5.00000000e-001 1. 1. 4.37500000e-001 0. 5.00000000e-001 1. 1.
      5.00000000e-001 0. 5.00000000e-001 1. 7.50000000e-001
      9.37500000e-001 5.00000000e-001 8.12500000e-001 8.75000000e-001
      1.25000000e-001 7.50000000e-001 1. 8.12500000e-001 3.12500000e-001</_>
    <_>
      3.75000000e-001 8.12500000e-001 5.00000000e-001 1.87500000e-001 0.
      9.37500000e-001 6.87500000e-001 8.75000000e-001 9.37500000e-001
      6.25000000e-002 1. 2.50000000e-001 0. 1. 2.50000000e-001 1.
      2.50000000e-001 0. 1. 3.12500000e-001 1. 2.50000000e-001 0.
      9.37500000e-001 5.00000000e-001 1. 2.50000000e-001 0.
      7.50000000e-001 5.00000000e-001 1. 4.37500000e-001 0.
      7.50000000e-001 7.50000000e-001 7.50000000e-001 5.62500000e-001 0.
      7.50000000e-001 7.50000000e-001 4.37500000e-001 9.37500000e-001
      3.75000000e-001 9.37500000e-001 4.37500000e-001 6.25000000e-002
      6.87500000e-001 1. 9.37500000e-001 1.25000000e-001</_>
    <_>
      3.75000000e-001 7.50000000e-001 8.12500000e-001 1.25000000e-001 0.
      7.50000000e-001 8.75000000e-001 8.75000000e-001 9.37500000e-001 0.
      8.75000000e-001 3.12500000e-001 6.25000000e-002 1. 1.87500000e-001
      7.50000000e-001 2.50000000e-001 0. 8.75000000e-001 2.50000000e-001
      7.50000000e-001 2.50000000e-001 0. 7.50000000e-001 4.37500000e-001
      7.50000000e-001 2.50000000e-001 0. 7.50000000e-001 5.00000000e-001
      7.50000000e-001 4.37500000e-001 0. 7.50000000e-001 5.00000000e-001
      6.87500000e-001 5.00000000e-001 0. 7.50000000e-001 5.00000000e-001
      3.75000000e-001 8.75000000e-001 2.50000000e-001 8.75000000e-001
      5.00000000e-001 0. 8.75000000e-001 1. 9.37500000e-001
      1.25000000e-001</_>
    <_>
      6.25000000e-002 8.12500000e-001 1. 9.37500000e-001 1.87500000e-001
      6.25000000e-001 9.37500000e-001 5.00000000e-001 9.37500000e-001
      6.87500000e-001 7.50000000e-001 6.25000000e-001 0. 7.50000000e-001
      1. 7.50000000e-001 5.00000000e-001 0. 7.50000000e-001
      9.37500000e-001 8.75000000e-001 5.00000000e-001 0. 7.50000000e-001
      7.50000000e-001 9.37500000e-001 5.00000000e-001 0. 8.75000000e-001
      7.50000000e-001 1. 5.00000000e-001 0. 8.75000000e-001
      7.50000000e-001 1. 5.00000000e-001 0. 9.37500000e-001
      8.75000000e-001 8.75000000e-001 8.75000000e-001 5.00000000e-001 1.
      5.62500000e-001 3.75000000e-001 1. 9.37500000e-001 6.87500000e-001
      6.25000000e-002</_>
    <_>
      0. 1.87500000e-001 6.87500000e-001 8.12500000e-001 1.87500000e-001
      0. 8.75000000e-001 5.00000000e-001 3.75000000e-001 8.75000000e-001
      2.50000000e-001 8.12500000e-001 0. 0. 1. 4.37500000e-001
      5.62500000e-001 0. 1.87500000e-001 7.50000000e-001 5.62500000e-001
      3.75000000e-001 0. 2.50000000e-001 7.50000000e-001 7.50000000e-001
      2.50000000e-001 0. 4.37500000e-001 5.62500000e-001 8.75000000e-001
      1.87500000e-001 0. 5.00000000e-001 3.12500000e-001 1. 0. 0.
      8.12500000e-001 2.50000000e-001 9.37500000e-001 3.12500000e-001
      4.37500000e-001 6.25000000e-001 0. 2.50000000e-001 9.37500000e-001
      5.00000000e-001 6.25000000e-002 0.</_>
    <_>
      0. 2.50000000e-001 6.87500000e-001 7.50000000e-001 3.75000000e-001
      1.25000000e-001 1. 5.00000000e-001 4.37500000e-001 8.75000000e-001
      3.75000000e-001 7.50000000e-001 0. 0. 8.75000000e-001
      5.00000000e-001 5.00000000e-001 0. 1.25000000e-001 7.50000000e-001
      5.62500000e-001 4.37500000e-001 0. 2.50000000e-001 7.50000000e-001
      7.50000000e-001 2.50000000e-001 0. 4.37500000e-001 5.62500000e-001
      8.75000000e-001 0. 0. 5.00000000e-001 5.00000000e-001 1. 0. 0.
      6.25000000e-001 2.50000000e-001 8.75000000e-001 5.00000000e-001
      3.12500000e-001 8.12500000e-001 0. 3.12500000e-001 7.50000000e-001
      8.75000000e-001 1.87500000e-001 0.</_>
    <_>
      1.25000000e-001 7.50000000e-001 1. 6.25000000e-001 0.
      7.50000000e-001 8.12500000e-001 5.00000000e-001 9.37500000e-001
      3.12500000e-001 1. 4.37500000e-001 0. 5.00000000e-001
      7.50000000e-001 1. 5.00000000e-001 0. 5.00000000e-001 1.
      7.50000000e-001 5.00000000e-001 0. 5.00000000e-001 1.
      7.50000000e-001 5.00000000e-001 0. 5.00000000e-001 1.
      7.50000000e-001 5.00000000e-001 0. 5.00000000e-001 1.
      7.50000000e-001 5.00000000e-001 0. 5.00000000e-001 1.
      5.62500000e-001 8.75000000e-001 3.75000000e-001 8.12500000e-001
      9.37500000e-001 6.25000000e-002 7.50000000e-001 1. 9.37500000e-001
      3.75000000e-001</_>
    <_>
      1.25000000e-001 9.37500000e-001 1. 9.37500000e-001 1.87500000e-001
      6.25000000e-001 1. 7.50000000e-001 1. 6.25000000e-001 1.
      7.50000000e-001 0. 8.12500000e-001 8.75000000e-001 1.
      7.50000000e-001 0. 7.50000000e-001 1. 1. 7.50000000e-001 0.
      7.50000000e-001 1. 1. 7.50000000e-001 0. 7.50000000e-001 1. 1.
      7.50000000e-001 0. 7.50000000e-001 1. 1. 7.50000000e-001 0.
      7.50000000e-001 1. 8.75000000e-001 1. 7.50000000e-001 1.
      6.25000000e-001 2.50000000e-001 9.37500000e-001 1. 8.12500000e-001
      6.25000000e-002</_>
    <_>
      6.25000000e-002 5.00000000e-001 8.75000000e-001 5.62500000e-001
      1.25000000e-001 8.75000000e-001 6.87500000e-001 1.25000000e-001
      5.00000000e-001 9.37500000e-001 1. 0. 2.50000000e-001 0. 1. 1. 0.
      5.00000000e-001 0. 1. 1. 0. 5.00000000e-001 0. 8.75000000e-001 1.
      0. 5.00000000e-001 0. 7.50000000e-001 1. 0. 5.00000000e-001 0.
      8.75000000e-001 1. 0. 2.50000000e-001 0. 1. 8.75000000e-001
      2.50000000e-001 0. 3.12500000e-001 9.37500000e-001 1.87500000e-001
      6.87500000e-001 7.50000000e-001 5.62500000e-001 1.25000000e-001</_>
    <_>
      3.75000000e-001 1. 4.37500000e-001 0. 0. 0. 8.75000000e-001
      8.12500000e-001 3.75000000e-001 6.25000000e-002 6.25000000e-001
      9.37500000e-001 5.00000000e-001 9.37500000e-001 7.50000000e-001 1.
      4.37500000e-001 0. 3.12500000e-001 1. 1. 2.50000000e-001 0.
      2.50000000e-001 1. 1. 2.50000000e-001 0. 2.50000000e-001 1. 1.
      2.50000000e-001 0. 1.87500000e-001 1. 1. 2.50000000e-001 0.
      2.50000000e-001 1. 9.37500000e-001 3.75000000e-001 0.
      3.12500000e-001 1. 3.75000000e-001 9.37500000e-001 7.50000000e-001
      7.50000000e-001 3.75000000e-001</_>
    <_>
      1.87500000e-001 8.75000000e-001 1. 1. 3.75000000e-001
      8.75000000e-001 6.25000000e-001 0. 6.25000000e-001 9.37500000e-001
      1. 2.50000000e-001 0. 2.50000000e-001 1. 1. 2.50000000e-001 0.
      2.50000000e-001 1. 1. 1.25000000e-001 0. 2.50000000e-001 1. 1. 0.
      0. 2.50000000e-001 1. 1. 0. 0. 2.50000000e-001 1. 1. 0. 0.
      2.50000000e-001 8.12500000e-001 1. 2.50000000e-001 0.
      5.62500000e-001 6.87500000e-001 5.62500000e-001 9.37500000e-001
      7.50000000e-001 6.87500000e-001 6.25000000e-002</_>
    <_>
      3.75000000e-001 7.50000000e-001 1. 6.87500000e-001 6.25000000e-002
      1. 4.37500000e-001 6.25000000e-002 6.25000000e-001 6.87500000e-001
      1. 6.25000000e-002 5.00000000e-001 2.50000000e-001 8.12500000e-001
      1. 0. 7.50000000e-001 0. 8.12500000e-001 1. 1.25000000e-001
      5.00000000e-001 0. 8.75000000e-001 1. 2.50000000e-001
      6.87500000e-001 0. 1. 8.75000000e-001 2.50000000e-001
      7.50000000e-001 0. 1. 7.50000000e-001 2.50000000e-001
      4.37500000e-001 0. 1. 5.00000000e-001 4.37500000e-001 0.
      1.87500000e-001 8.75000000e-001 0. 7.50000000e-001 7.50000000e-001
      8.75000000e-001 2.50000000e-001</_>
    <_>
      0. 6.25000000e-002 1.25000000e-001 2.50000000e-001 5.62500000e-001
      4.37500000e-001 8.75000000e-001 1. 6.25000000e-001 0. 1.
      1.25000000e-001 6.25000000e-002 9.37500000e-001 1.25000000e-001 1.
      2.50000000e-001 3.12500000e-001 7.50000000e-001 2.50000000e-001 1.
      2.50000000e-001 2.50000000e-001 7.50000000e-001 2.50000000e-001 1.
      1.87500000e-001 4.37500000e-001 5.62500000e-001 3.12500000e-001 1.
      6.25000000e-002 6.87500000e-001 5.00000000e-001 5.00000000e-001
      8.75000000e-001 1.25000000e-001 3.12500000e-001 5.00000000e-001
      4.37500000e-001 4.37500000e-001 6.87500000e-001 6.25000000e-002
      8.12500000e-001 1.87500000e-001 0. 4.37500000e-001 8.12500000e-001
      4.37500000e-001 0.</_>
    <_>
      0. 8.75000000e-001 1. 7.50000000e-001 0. 0. 1. 3.12500000e-001 1.
      0. 0. 7.50000000e-001 0. 1. 0. 2.50000000e-001 7.50000000e-001 0.
      9.37500000e-001 2.50000000e-001 2.50000000e-001 7.50000000e-001 0.
      7.50000000e-001 2.50000000e-001 2.50000000e-001 7.50000000e-001 0.
      8.12500000e-001 2.50000000e-001 1.87500000e-001 8.75000000e-001 0.
      1. 2.50000000e-001 2.50000000e-001 1. 0. 1. 2.50000000e-001 0. 1.
      6.25000000e-001 1. 0. 0. 6.25000000e-001 1. 7.50000000e-001 0.</_>
    <_>
      1.87500000e-001 5.00000000e-001 9.37500000e-001 8.12500000e-001
      6.25000000e-002 6.87500000e-001 8.75000000e-001 6.25000000e-001 1.
      6.25000000e-001 9.37500000e-001 5.00000000e-001 0. 6.25000000e-001
      7.50000000e-001 1. 5.00000000e-001 0. 5.00000000e-001
      7.50000000e-001 1. 5.00000000e-001 0. 5.00000000e-001 1. 1.
      5.00000000e-001 0. 5.00000000e-001 1. 1. 5.00000000e-001 0.
      5.00000000e-001 1. 1. 5.00000000e-001 0. 5.62500000e-001 1.
      4.37500000e-001 1.87500000e-001 5.00000000e-001 9.37500000e-001
      5.62500000e-001 0. 0. 8.75000000e-001 6.25000000e-001 0.</_>
    <_>
      0. 2.50000000e-001 1. 8.12500000e-001 6.25000000e-002
      4.37500000e-001 1. 8.12500000e-001 1. 6.87500000e-001
      7.50000000e-001 7.50000000e-001 0. 5.62500000e-001 1. 1.
      5.00000000e-001 0. 5.00000000e-001 8.12500000e-001 1.
      5.00000000e-001 0. 5.00000000e-001 7.50000000e-001 9.37500000e-001
      5.00000000e-001 0. 5.00000000e-001 9.37500000e-001 7.50000000e-001
      5.00000000e-001 0. 5.00000000e-001 1. 5.62500000e-001
      6.87500000e-001 0. 5.00000000e-001 1. 5.00000000e-001
      9.37500000e-001 3.12500000e-001 8.75000000e-001 7.50000000e-001
      6.25000000e-002 8.12500000e-001 1. 9.37500000e-001 6.25000000e-002</_>
    <_>
      1.87500000e-001 8.75000000e-001 1. 5.62500000e-001 0.
      9.37500000e-001 8.12500000e-001 5.00000000e-001 9.37500000e-001
      2.50000000e-001 1. 1.25000000e-001 0. 5.62500000e-001
      6.87500000e-001 1. 1.87500000e-001 0. 5.00000000e-001
      7.50000000e-001 1. 2.50000000e-001 0. 5.00000000e-001 1. 1.
      2.50000000e-001 0. 5.00000000e-001 1. 1. 2.50000000e-001 0.
      4.37500000e-001 1. 1. 3.12500000e-001 0. 5.00000000e-001 1.
      7.50000000e-001 8.12500000e-001 5.00000000e-001 9.37500000e-001
      8.75000000e-001 6.25000000e-002 7.50000000e-001 1. 8.12500000e-001
      3.12500000e-001</_>
    <_>
      2.50000000e-001 9.37500000e-001 1. 1. 1.87500000e-001
      9.37500000e-001 8.12500000e-001 2.50000000e-001 5.62500000e-001
      8.12500000e-001 1. 2.50000000e-001 0. 0. 1. 1. 2.50000000e-001 0.
      0. 1. 1. 2.50000000e-001 0. 0. 1. 1. 5.00000000e-001 0. 0.
      8.12500000e-001 1. 5.00000000e-001 0. 0. 7.50000000e-001
      8.12500000e-001 6.87500000e-001 0. 1.87500000e-001 9.37500000e-001
      3.12500000e-001 1. 8.75000000e-001 1. 1. 0. 3.12500000e-001 1.
      9.37500000e-001 2.50000000e-001</_>
    <_>
      5.00000000e-001 1. 1. 8.12500000e-001 1.25000000e-001
      9.37500000e-001 8.12500000e-001 3.75000000e-001 8.12500000e-001
      8.12500000e-001 1. 5.00000000e-001 0. 5.00000000e-001 1. 1.
      5.00000000e-001 0. 2.50000000e-001 1. 1. 5.00000000e-001 0.
      2.50000000e-001 1. 1. 5.00000000e-001 0. 1.87500000e-001
      9.37500000e-001 9.37500000e-001 5.00000000e-001 0. 0.
      8.75000000e-001 6.87500000e-001 6.25000000e-001 0. 3.12500000e-001
      1. 2.50000000e-001 1. 7.50000000e-001 9.37500000e-001
      8.12500000e-001 2.50000000e-001 6.87500000e-001 1. 1.
      6.25000000e-002</_>
    <_>
      4.37500000e-001 1. 1. 1. 3.12500000e-001 1. 6.87500000e-001
      2.50000000e-001 8.75000000e-001 6.87500000e-001 1. 5.00000000e-001
      0. 7.50000000e-001 7.50000000e-001 1. 5.00000000e-001 0.
      7.50000000e-001 7.50000000e-001 1. 5.00000000e-001 0.
      7.50000000e-001 7.50000000e-001 1. 5.00000000e-001 0.
      7.50000000e-001 7.50000000e-001 1. 5.00000000e-001 0.
      7.50000000e-001 7.50000000e-001 1. 5.00000000e-001 0.
      7.50000000e-001 7.50000000e-001 8.12500000e-001 9.37500000e-001
      6.25000000e-001 1. 5.62500000e-001 1.87500000e-001 8.12500000e-001
      1. 8.12500000e-001 6.25000000e-002</_>
    <_>
      3.12500000e-001 1. 1. 1. 3.75000000e-001 8.75000000e-001
      9.37500000e-001 5.00000000e-001 9.37500000e-001 7.50000000e-001 1.
      7.50000000e-001 0. 5.62500000e-001 7.50000000e-001 1.
      7.50000000e-001 0. 5.00000000e-001 7.50000000e-001 1.
      6.25000000e-001 0. 5.00000000e-001 1. 1. 5.62500000e-001 0.
      5.00000000e-001 1. 8.75000000e-001 7.50000000e-001 0.
      5.00000000e-001 1. 7.50000000e-001 7.50000000e-001 0.
      5.62500000e-001 8.75000000e-001 6.87500000e-001 8.75000000e-001
      5.00000000e-001 9.37500000e-001 6.25000000e-001 1.87500000e-001
      8.75000000e-001 1. 8.75000000e-001 1.87500000e-001</_>
    <_>
      3.12500000e-001 1. 1. 6.25000000e-001 0. 8.75000000e-001
      8.12500000e-001 1.87500000e-001 8.75000000e-001 4.37500000e-001 1.
      5.00000000e-001 0. 6.25000000e-001 7.50000000e-001 1.
      5.00000000e-001 0. 5.00000000e-001 7.50000000e-001 1.
      5.00000000e-001 0. 5.00000000e-001 8.12500000e-001 1.
      5.00000000e-001 0. 5.00000000e-001 1. 8.12500000e-001
      5.00000000e-001 0. 5.00000000e-001 9.37500000e-001 7.50000000e-001
      5.00000000e-001 0. 5.00000000e-001 7.50000000e-001 6.25000000e-001
      8.75000000e-001 3.12500000e-001 8.75000000e-001 6.87500000e-001
      1.25000000e-001 6.87500000e-001 8.12500000e-001 1. 3.12500000e-001</_>
    <_>
      6.25000000e-002 8.12500000e-001 1. 8.12500000e-001 6.25000000e-002
      6.87500000e-001 9.37500000e-001 2.50000000e-001 8.75000000e-001
      6.87500000e-001 7.50000000e-001 4.37500000e-001 0. 3.75000000e-001
      8.75000000e-001 9.37500000e-001 2.50000000e-001 0. 2.50000000e-001
      1. 1. 4.37500000e-001 0. 2.50000000e-001 1. 1. 2.50000000e-001 0.
      3.75000000e-001 7.50000000e-001 1. 2.50000000e-001 0.
      5.00000000e-001 7.50000000e-001 1. 2.50000000e-001 0.
      6.25000000e-001 7.50000000e-001 6.87500000e-001 6.25000000e-001
      3.12500000e-001 9.37500000e-001 5.62500000e-001 6.25000000e-002
      8.12500000e-001 7.50000000e-001 6.25000000e-001 6.25000000e-002</_>
    <_>
      7.50000000e-001 9.37500000e-001 1. 7.50000000e-001 6.25000000e-002
      1. 6.87500000e-001 5.62500000e-001 1. 4.37500000e-001 1.
      2.50000000e-001 0. 7.50000000e-001 6.25000000e-001 1.
      2.50000000e-001 0. 5.00000000e-001 7.50000000e-001 1.
      2.50000000e-001 0. 5.00000000e-001 8.75000000e-001 1.
      2.50000000e-001 0. 4.37500000e-001 1. 1. 5.00000000e-001 0.
      2.50000000e-001 1. 9.37500000e-001 5.00000000e-001 0.
      2.50000000e-001 1. 5.62500000e-001 8.75000000e-001 2.50000000e-001
      8.12500000e-001 9.37500000e-001 6.25000000e-002 8.75000000e-001 1.
      9.37500000e-001 3.12500000e-001</_>
    <_>
      8.75000000e-001 1. 1. 7.50000000e-001 6.25000000e-002 1.
      2.50000000e-001 6.25000000e-002 8.12500000e-001 5.62500000e-001
      7.50000000e-001 0. 0. 3.75000000e-001 8.12500000e-001
      8.75000000e-001 0. 0. 2.50000000e-001 1. 1. 0. 0. 2.50000000e-001
      1. 1. 6.25000000e-002 0. 2.50000000e-001 1. 1. 2.50000000e-001 0.
      0. 1. 8.75000000e-001 3.12500000e-001 0. 6.25000000e-002 1.
      5.00000000e-001 9.37500000e-001 5.00000000e-001 6.87500000e-001
      9.37500000e-001 0. 5.00000000e-001 7.50000000e-001 7.50000000e-001
      1.87500000e-001</_>
    <_>
      3.12500000e-001 8.12500000e-001 1. 4.37500000e-001 0.
      8.12500000e-001 8.12500000e-001 6.87500000e-001 1. 1.87500000e-001
      1. 1.25000000e-001 0. 5.62500000e-001 6.87500000e-001 1.
      6.25000000e-002 0. 2.50000000e-001 8.75000000e-001 1.
      2.50000000e-001 0. 1.25000000e-001 1. 8.75000000e-001
      2.50000000e-001 0. 0. 1. 9.37500000e-001 3.75000000e-001 0. 0. 1.
      7.50000000e-001 5.00000000e-001 0. 0. 1. 5.62500000e-001
      5.00000000e-001 0. 0. 8.12500000e-001 3.12500000e-001
      9.37500000e-001 1.87500000e-001 3.12500000e-001 1.</_>
    <_>
      0. 3.75000000e-001 7.50000000e-001 4.37500000e-001 0.
      6.25000000e-001 8.12500000e-001 3.12500000e-001 7.50000000e-001
      6.87500000e-001 1. 2.50000000e-001 0. 0. 8.75000000e-001 1. 0. 0.
      0. 7.50000000e-001 1. 2.50000000e-001 0. 0. 7.50000000e-001
      9.37500000e-001 2.50000000e-001 0. 0. 7.50000000e-001
      7.50000000e-001 2.50000000e-001 0. 0. 7.50000000e-001
      7.50000000e-001 2.50000000e-001 0. 0. 8.12500000e-001
      6.87500000e-001 5.62500000e-001 0. 1.87500000e-001 9.37500000e-001
      1.25000000e-001 6.87500000e-001 8.12500000e-001 8.12500000e-001
      2.50000000e-001</_>
    <_>
      4.37500000e-001 1. 1. 9.37500000e-001 1.87500000e-001
      6.87500000e-001 1. 5.62500000e-001 9.37500000e-001 5.00000000e-001
      8.12500000e-001 1. 0. 6.87500000e-001 6.87500000e-001
      8.12500000e-001 6.25000000e-001 0. 5.00000000e-001 8.12500000e-001
      7.50000000e-001 5.62500000e-001 0. 5.00000000e-001 7.50000000e-001
      7.50000000e-001 7.50000000e-001 0. 4.37500000e-001 7.50000000e-001
      7.50000000e-001 7.50000000e-001 0. 2.50000000e-001 7.50000000e-001
      7.50000000e-001 7.50000000e-001 0. 5.00000000e-001 7.50000000e-001
      4.37500000e-001 7.50000000e-001 0. 5.00000000e-001 6.25000000e-001
      0. 6.87500000e-001 0. 4.37500000e-001 1.87500000e-001</_>
    <_>
      0. 2.50000000e-001 8.12500000e-001 9.37500000e-001 0.
      5.62500000e-001 9.37500000e-001 8.75000000e-001 1. 2.50000000e-001
      7.50000000e-001 5.00000000e-001 6.25000000e-002 8.75000000e-001
      6.25000000e-001 7.50000000e-001 5.00000000e-001 0. 7.50000000e-001
      7.50000000e-001 7.50000000e-001 5.00000000e-001 0. 7.50000000e-001
      8.75000000e-001 7.50000000e-001 5.00000000e-001 0. 7.50000000e-001
      9.37500000e-001 7.50000000e-001 5.00000000e-001 0. 9.37500000e-001
      1. 1. 5.00000000e-001 0. 5.62500000e-001 1. 9.37500000e-001
      6.25000000e-001 0. 8.75000000e-001 8.12500000e-001 1.87500000e-001
      4.37500000e-001 0. 1. 3.75000000e-001</_>
    <_>
      3.12500000e-001 1. 1. 8.75000000e-001 0. 8.75000000e-001 1.
      7.50000000e-001 1. 5.62500000e-001 1. 6.87500000e-001 0.
      7.50000000e-001 7.50000000e-001 1. 4.37500000e-001 0.
      5.00000000e-001 1. 1. 2.50000000e-001 0. 5.00000000e-001 1. 1.
      3.75000000e-001 0. 5.00000000e-001 1. 1. 5.00000000e-001 0.
      5.00000000e-001 1. 1. 5.00000000e-001 0. 5.00000000e-001 1. 1.
      6.25000000e-001 0. 5.62500000e-001 1. 7.50000000e-001 1.
      8.75000000e-001 1. 4.37500000e-001</_>
    <_>
      1.25000000e-001 8.12500000e-001 1. 6.25000000e-001 0.
      6.87500000e-001 1. 1. 1. 4.37500000e-001 1. 8.12500000e-001
      6.87500000e-001 7.50000000e-001 9.37500000e-001 1. 2.50000000e-001
      0. 1.87500000e-001 4.37500000e-001 1. 2.50000000e-001 0. 0.
      1.87500000e-001 1. 1.25000000e-001 0. 2.50000000e-001
      6.87500000e-001 6.87500000e-001 0. 0. 1.25000000e-001 1.
      5.62500000e-001 3.12500000e-001 0. 1.87500000e-001 1.
      5.62500000e-001 9.37500000e-001 5.00000000e-001 9.37500000e-001
      7.50000000e-001 0. 5.00000000e-001 7.50000000e-001 6.25000000e-001
      6.25000000e-002</_>
    <_>
      1.87500000e-001 5.00000000e-001 7.50000000e-001 4.37500000e-001 0.
      8.75000000e-001 8.12500000e-001 5.00000000e-001 9.37500000e-001
      4.37500000e-001 1. 2.50000000e-001 0. 6.25000000e-002
      3.75000000e-001 1. 2.50000000e-001 0. 1.87500000e-001
      6.25000000e-001 1. 2.50000000e-001 0. 2.50000000e-001
      7.50000000e-001 1. 2.50000000e-001 0. 2.50000000e-001 1.
      9.37500000e-001 2.50000000e-001 0. 2.50000000e-001 1.
      7.50000000e-001 3.12500000e-001 0. 2.50000000e-001 1.
      5.00000000e-001 8.12500000e-001 3.12500000e-001 7.50000000e-001
      8.12500000e-001 0. 6.87500000e-001 7.50000000e-001 6.87500000e-001
      1.87500000e-001</_>
    <_>
      6.25000000e-002 6.87500000e-001 1. 8.75000000e-001 5.62500000e-001
      4.37500000e-001 8.75000000e-001 6.25000000e-002 6.25000000e-002
      8.12500000e-001 5.00000000e-001 5.00000000e-001 0. 0.
      3.12500000e-001 7.50000000e-001 5.00000000e-001 0. 0. 1.
      7.50000000e-001 2.50000000e-001 0. 0. 1. 7.50000000e-001
      2.50000000e-001 0. 0. 1. 8.75000000e-001 2.50000000e-001 0. 0. 1.
      1. 2.50000000e-001 0. 2.50000000e-001 9.37500000e-001
      7.50000000e-001 7.50000000e-001 3.12500000e-001 7.50000000e-001
      5.00000000e-001 1.25000000e-001 6.25000000e-001 8.12500000e-001
      5.00000000e-001 0.</_>
    <_>
      6.25000000e-002 6.87500000e-001 9.37500000e-001 8.75000000e-001
      4.37500000e-001 6.87500000e-001 8.75000000e-001 6.25000000e-002
      1.87500000e-001 8.75000000e-001 7.50000000e-001 4.37500000e-001 0.
      0. 1.87500000e-001 9.37500000e-001 2.50000000e-001 0.
      1.87500000e-001 1. 1. 0. 0. 2.50000000e-001 7.50000000e-001 1. 0.
      0. 2.50000000e-001 7.50000000e-001 1. 0. 0. 2.50000000e-001
      7.50000000e-001 1. 0. 0. 4.37500000e-001 7.50000000e-001 1.
      2.50000000e-001 1.87500000e-001 8.12500000e-001 3.75000000e-001
      4.37500000e-001 1. 9.37500000e-001 4.37500000e-001 0.</_>
    <_>
      1.87500000e-001 7.50000000e-001 8.75000000e-001 5.00000000e-001
      6.25000000e-002 8.12500000e-001 8.12500000e-001 3.12500000e-001
      9.37500000e-001 4.37500000e-001 1. 2.50000000e-001 0.
      6.25000000e-002 2.50000000e-001 1. 2.50000000e-001 0.
      1.87500000e-001 6.25000000e-001 1. 2.50000000e-001 0.
      2.50000000e-001 7.50000000e-001 8.75000000e-001 2.50000000e-001 0.
      2.50000000e-001 9.37500000e-001 7.50000000e-001 3.12500000e-001 0.
      2.50000000e-001 1. 7.50000000e-001 5.00000000e-001 0.
      2.50000000e-001 1. 5.00000000e-001 9.37500000e-001 5.00000000e-001
      6.87500000e-001 8.75000000e-001 0. 5.00000000e-001 8.75000000e-001
      8.75000000e-001 3.12500000e-001</_>
    <_>
      6.25000000e-002 6.25000000e-001 1. 6.25000000e-001 0.
      7.50000000e-001 8.12500000e-001 2.50000000e-001 4.37500000e-001
      5.62500000e-001 1. 2.50000000e-001 0. 0. 2.50000000e-001 1.
      2.50000000e-001 0. 2.50000000e-001 6.25000000e-001 1.
      2.50000000e-001 0. 2.50000000e-001 7.50000000e-001 1.
      2.50000000e-001 0. 1.87500000e-001 9.37500000e-001 9.37500000e-001
      2.50000000e-001 0. 1.25000000e-001 1. 7.50000000e-001
      2.50000000e-001 0. 2.50000000e-001 1. 6.87500000e-001
      6.87500000e-001 0. 5.62500000e-001 8.75000000e-001 1.87500000e-001
      8.75000000e-001 1. 8.12500000e-001 3.12500000e-001</_>
    <_>
      2.50000000e-001 1. 1. 1.87500000e-001 0. 8.12500000e-001
      8.75000000e-001 6.87500000e-001 9.37500000e-001 1.25000000e-001 1.
      5.00000000e-001 6.25000000e-002 1. 5.62500000e-001 1.
      5.00000000e-001 0. 8.75000000e-001 7.50000000e-001 8.75000000e-001
      5.00000000e-001 0. 7.50000000e-001 7.50000000e-001 7.50000000e-001
      5.00000000e-001 0. 7.50000000e-001 7.50000000e-001 7.50000000e-001
      5.00000000e-001 0. 6.87500000e-001 7.50000000e-001 7.50000000e-001
      6.25000000e-001 0. 5.00000000e-001 8.75000000e-001 5.00000000e-001
      1. 6.87500000e-001 9.37500000e-001 7.50000000e-001 6.25000000e-002
      5.00000000e-001 8.12500000e-001 9.37500000e-001 3.12500000e-001</_>
    <_>
      3.75000000e-001 9.37500000e-001 1. 6.87500000e-001 0.
      8.75000000e-001 5.62500000e-001 2.50000000e-001 8.12500000e-001
      4.37500000e-001 1. 1.25000000e-001 0. 3.12500000e-001
      7.50000000e-001 7.50000000e-001 2.50000000e-001 0. 2.50000000e-001
      7.50000000e-001 7.50000000e-001 2.50000000e-001 0. 1.25000000e-001
      1. 7.50000000e-001 3.75000000e-001 0. 0. 1. 5.62500000e-001
      5.00000000e-001 0. 0. 1. 5.00000000e-001 5.00000000e-001 0. 0. 1.
      1.25000000e-001 8.75000000e-001 1.25000000e-001 4.37500000e-001
      9.37500000e-001 0. 4.37500000e-001 9.37500000e-001 8.75000000e-001
      1.87500000e-001</_>
    <_>
      5.00000000e-001 1. 1. 1. 1.87500000e-001 7.50000000e-001
      6.87500000e-001 6.25000000e-002 8.12500000e-001 6.87500000e-001
      7.50000000e-001 1.25000000e-001 0. 2.50000000e-001 7.50000000e-001
      8.12500000e-001 0. 0. 2.50000000e-001 7.50000000e-001
      7.50000000e-001 1.87500000e-001 0. 2.50000000e-001 8.12500000e-001
      7.50000000e-001 2.50000000e-001 0. 2.50000000e-001 1.
      7.50000000e-001 2.50000000e-001 0. 2.50000000e-001 1.
      7.50000000e-001 3.12500000e-001 0. 3.12500000e-001 1.
      7.50000000e-001 7.50000000e-001 2.50000000e-001 8.12500000e-001
      7.50000000e-001 3.12500000e-001 9.37500000e-001 1. 9.37500000e-001
      2.50000000e-001</_>
    <_>
      3.75000000e-001 8.12500000e-001 9.37500000e-001 5.00000000e-001
      6.25000000e-002 9.37500000e-001 6.25000000e-001 3.12500000e-001
      8.75000000e-001 6.87500000e-001 1. 2.50000000e-001 0.
      3.75000000e-001 1. 1. 2.50000000e-001 0. 2.50000000e-001 1. 1.
      2.50000000e-001 0. 2.50000000e-001 1. 1. 2.50000000e-001 0.
      2.50000000e-001 1. 1. 2.50000000e-001 0. 2.50000000e-001 1. 1.
      2.50000000e-001 0. 3.75000000e-001 1. 8.12500000e-001
      5.62500000e-001 1.87500000e-001 5.62500000e-001 8.12500000e-001
      1.87500000e-001 6.87500000e-001 8.12500000e-001 6.87500000e-001
      1.25000000e-001</_>
    <_>
      6.87500000e-001 9.37500000e-001 1.25000000e-001 0. 0.
      4.37500000e-001 1. 6.87500000e-001 1.87500000e-001 0.
      6.87500000e-001 9.37500000e-001 5.62500000e-001 1. 4.37500000e-001
      1. 5.62500000e-001 0. 7.50000000e-001 8.12500000e-001 1.
      5.00000000e-001 0. 5.00000000e-001 1. 1. 7.50000000e-001 0.
      5.00000000e-001 1. 8.75000000e-001 9.37500000e-001 0.
      5.00000000e-001 1. 7.50000000e-001 1. 0. 3.12500000e-001 1.
      4.37500000e-001 1. 6.25000000e-001 7.50000000e-001 1. 0.
      6.25000000e-001 1. 9.37500000e-001 5.00000000e-001</_>
    <_>
      4.37500000e-001 8.12500000e-001 1. 8.75000000e-001 6.25000000e-002
      9.37500000e-001 7.50000000e-001 4.37500000e-001 9.37500000e-001
      4.37500000e-001 1. 5.00000000e-001 0. 7.50000000e-001
      6.25000000e-001 1. 5.00000000e-001 0. 5.00000000e-001
      7.50000000e-001 1. 5.00000000e-001 0. 5.00000000e-001
      7.50000000e-001 1. 6.25000000e-001 0. 5.00000000e-001
      9.37500000e-001 1. 7.50000000e-001 0. 5.00000000e-001 1.
      8.12500000e-001 7.50000000e-001 0. 5.00000000e-001 1.
      4.37500000e-001 1. 5.62500000e-001 9.37500000e-001 9.37500000e-001
      0. 5.62500000e-001 7.50000000e-001 8.12500000e-001 5.62500000e-001</_>
    <_>
      3.12500000e-001 1. 1. 9.37500000e-001 3.75000000e-001
      8.75000000e-001 1. 1. 1. 1. 1. 5.62500000e-001 0. 4.37500000e-001
      1. 1. 2.50000000e-001 0. 2.50000000e-001 1. 1. 3.12500000e-001 0.
      2.50000000e-001 1. 1. 2.50000000e-001 0. 2.50000000e-001 1. 1.
      2.50000000e-001 0. 2.50000000e-001 1. 1. 2.50000000e-001 0.
      6.25000000e-002 1. 1. 5.00000000e-001 0. 3.12500000e-001 1.
      3.75000000e-001 1. 8.12500000e-001 9.37500000e-001 3.75000000e-001</_>
    <_>
      6.25000000e-002 6.25000000e-001 8.12500000e-001 3.12500000e-001 0.
      6.25000000e-001 8.75000000e-001 5.00000000e-001 8.75000000e-001
      5.00000000e-001 1. 3.12500000e-001 0. 3.12500000e-001
      7.50000000e-001 1. 2.50000000e-001 0. 2.50000000e-001 1. 1.
      2.50000000e-001 0. 2.50000000e-001 8.75000000e-001 1.
      2.50000000e-001 0. 2.50000000e-001 7.50000000e-001 1. 0. 0.
      2.50000000e-001 7.50000000e-001 1. 0. 0. 3.12500000e-001
      7.50000000e-001 1. 5.00000000e-001 3.12500000e-001 8.75000000e-001
      4.37500000e-001 3.75000000e-001 1. 1. 7.50000000e-001
      6.25000000e-002</_>
    <_>
      5.00000000e-001 1. 1. 2.50000000e-001 2.50000000e-001 1.
      5.62500000e-001 5.62500000e-001 8.75000000e-001 3.12500000e-001 1.
      2.50000000e-001 6.25000000e-002 1. 5.00000000e-001 1.
      2.50000000e-001 0. 1. 5.00000000e-001 1. 2.50000000e-001 0. 1.
      5.00000000e-001 1. 2.50000000e-001 0. 1. 5.00000000e-001
      8.12500000e-001 2.50000000e-001 0. 1. 4.37500000e-001
      7.50000000e-001 3.75000000e-001 6.25000000e-002 1. 1.87500000e-001
      3.75000000e-001 1. 8.75000000e-001 8.12500000e-001 0. 0.
      6.25000000e-001 1. 3.12500000e-001 5.00000000e-001</_>
    <_>
      3.12500000e-001 9.37500000e-001 9.37500000e-001 1.87500000e-001
      6.87500000e-001 8.75000000e-001 6.87500000e-001 6.87500000e-001
      7.50000000e-001 5.00000000e-001 1. 2.50000000e-001 2.50000000e-001
      1. 5.00000000e-001 1. 2.50000000e-001 2.50000000e-001 1.
      6.25000000e-001 1. 2.50000000e-001 0. 1. 7.50000000e-001
      8.75000000e-001 2.50000000e-001 0. 1. 5.62500000e-001
      7.50000000e-001 2.50000000e-001 0. 1. 1.87500000e-001
      6.87500000e-001 3.12500000e-001 6.25000000e-002 1. 1.25000000e-001
      3.75000000e-001 9.37500000e-001 8.75000000e-001 7.50000000e-001 0.
      0. 4.37500000e-001 8.12500000e-001 1.25000000e-001 1.87500000e-001</_>
    <_>
      1.87500000e-001 9.37500000e-001 1.25000000e-001 5.00000000e-001 0.
      5.62500000e-001 3.12500000e-001 0. 3.12500000e-001 6.25000000e-001
      8.75000000e-001 3.12500000e-001 0. 3.12500000e-001 8.75000000e-001
      1. 5.00000000e-001 0. 3.12500000e-001 1. 9.37500000e-001
      5.00000000e-001 0. 2.50000000e-001 1. 7.50000000e-001
      5.00000000e-001 0. 2.50000000e-001 1. 7.50000000e-001
      5.00000000e-001 0. 2.50000000e-001 1. 6.87500000e-001
      8.75000000e-001 6.25000000e-002 3.75000000e-001 1. 3.12500000e-001
      1. 8.12500000e-001 9.37500000e-001 6.87500000e-001 0.
      3.75000000e-001 8.12500000e-001 5.62500000e-001 0.</_>
    <_>
      6.25000000e-002 8.12500000e-001 1. 7.50000000e-001 6.25000000e-002
      7.50000000e-001 1. 3.75000000e-001 9.37500000e-001 4.37500000e-001
      1. 5.00000000e-001 0. 4.37500000e-001 5.00000000e-001 1.
      2.50000000e-001 0. 5.00000000e-001 7.50000000e-001 1.
      4.37500000e-001 0. 5.00000000e-001 8.75000000e-001 1.
      5.00000000e-001 0. 5.00000000e-001 1. 1. 5.00000000e-001 0.
      5.00000000e-001 1. 9.37500000e-001 5.62500000e-001 0.
      5.62500000e-001 9.37500000e-001 6.25000000e-001 1. 8.12500000e-001
      1. 5.00000000e-001 6.25000000e-002 6.87500000e-001 1.
      6.25000000e-001 6.25000000e-002</_>
    <_>
      6.25000000e-002 8.12500000e-001 1. 8.12500000e-001 1.25000000e-001
      6.25000000e-001 8.75000000e-001 3.75000000e-001 7.50000000e-001
      4.37500000e-001 7.50000000e-001 5.00000000e-001 0. 3.12500000e-001
      6.25000000e-001 7.50000000e-001 4.37500000e-001 0. 3.75000000e-001
      7.50000000e-001 8.12500000e-001 5.00000000e-001 0. 5.00000000e-001
      9.37500000e-001 1. 5.00000000e-001 0. 5.00000000e-001 1.
      8.12500000e-001 5.00000000e-001 0. 3.75000000e-001 1.
      7.50000000e-001 6.87500000e-001 0. 4.37500000e-001 1.
      6.25000000e-001 1. 5.62500000e-001 8.75000000e-001 6.87500000e-001
      0. 6.25000000e-001 1. 6.87500000e-001 6.25000000e-002</_>
    <_>
      1.87500000e-001 3.75000000e-001 0. 5.62500000e-001 6.25000000e-002
      1.25000000e-001 6.25000000e-002 0. 5.00000000e-001 5.00000000e-001
      6.87500000e-001 1.25000000e-001 0. 5.00000000e-001 7.50000000e-001
      9.37500000e-001 2.50000000e-001 0. 5.00000000e-001 7.50000000e-001
      1. 2.50000000e-001 0. 5.00000000e-001 7.50000000e-001
      7.50000000e-001 2.50000000e-001 0. 5.00000000e-001 7.50000000e-001
      7.50000000e-001 3.75000000e-001 0. 5.00000000e-001 7.50000000e-001
      7.50000000e-001 5.62500000e-001 0. 5.62500000e-001 7.50000000e-001
      5.00000000e-001 1. 1. 1. 3.75000000e-001 6.25000000e-002
      5.00000000e-001 6.87500000e-001 3.12500000e-001 0.</_>
    <_>
      8.75000000e-001 5.62500000e-001 3.12500000e-001 9.37500000e-001
      3.75000000e-001 1. 2.50000000e-001 0. 7.50000000e-001
      6.25000000e-001 1. 2.50000000e-001 0. 5.62500000e-001
      7.50000000e-001 1. 2.50000000e-001 0. 5.00000000e-001
      7.50000000e-001 1. 2.50000000e-001 0. 5.00000000e-001
      7.50000000e-001 1. 2.50000000e-001 0. 5.00000000e-001
      9.37500000e-001 1. 2.50000000e-001 0. 5.00000000e-001
      8.12500000e-001 1. 5.00000000e-001 0. 6.25000000e-001
      8.75000000e-001 6.87500000e-001 1. 8.75000000e-001 1.
      5.62500000e-001 1.25000000e-001 7.50000000e-001 1. 6.87500000e-001
      6.25000000e-002</_>
    <_>
      8.12500000e-001 1. 1. 9.37500000e-001 1.87500000e-001 1.
      3.75000000e-001 0. 6.87500000e-001 8.12500000e-001 1. 0. 0.
      2.50000000e-001 1. 1. 0. 0. 2.50000000e-001 1. 1. 0. 0.
      2.50000000e-001 1. 1. 0. 0. 0. 1. 1. 1.25000000e-001 0. 0. 1. 1.
      2.50000000e-001 0. 6.25000000e-002 1. 8.12500000e-001
      6.87500000e-001 6.25000000e-002 6.25000000e-001 1. 3.12500000e-001
      1. 1. 1. 5.00000000e-001</_>
    <_>
      8.12500000e-001 1. 1. 1. 3.12500000e-001 1. 5.00000000e-001 0.
      6.87500000e-001 8.75000000e-001 1. 2.50000000e-001 0.
      2.50000000e-001 1. 1. 2.50000000e-001 0. 2.50000000e-001 1. 1.
      2.50000000e-001 0. 6.25000000e-002 1. 8.75000000e-001
      2.50000000e-001 0. 0. 1. 7.50000000e-001 2.50000000e-001 0. 0. 1.
      7.50000000e-001 4.37500000e-001 0. 6.25000000e-002 1.
      4.37500000e-001 8.12500000e-001 2.50000000e-001 5.62500000e-001 1.
      1.25000000e-001 8.12500000e-001 1. 1. 3.75000000e-001</_>
    <_>
      0. 5.00000000e-001 9.37500000e-001 1. 3.75000000e-001
      3.75000000e-001 7.50000000e-001 6.25000000e-002 1.87500000e-001 1.
      7.50000000e-001 3.75000000e-001 0. 0. 7.50000000e-001
      7.50000000e-001 2.50000000e-001 0. 0. 7.50000000e-001
      7.50000000e-001 2.50000000e-001 0. 0. 1. 9.37500000e-001 0. 0. 0.
      1. 1. 0. 0. 1.25000000e-001 7.50000000e-001 1. 0. 0.
      2.50000000e-001 7.50000000e-001 1. 1.87500000e-001 6.25000000e-002
      6.25000000e-001 5.00000000e-001 5.00000000e-001 9.37500000e-001
      8.12500000e-001 3.12500000e-001 0.</_>
    <_>
      6.25000000e-002 5.00000000e-001 1. 7.50000000e-001 1.87500000e-001
      5.62500000e-001 9.37500000e-001 3.12500000e-001 6.25000000e-001
      6.87500000e-001 7.50000000e-001 4.37500000e-001 0. 2.50000000e-001
      8.12500000e-001 7.50000000e-001 2.50000000e-001 0. 2.50000000e-001
      7.50000000e-001 8.75000000e-001 2.50000000e-001 0. 2.50000000e-001
      7.50000000e-001 1. 2.50000000e-001 0. 2.50000000e-001
      7.50000000e-001 1. 0. 0. 5.00000000e-001 5.62500000e-001 1.
      6.25000000e-002 0. 6.25000000e-001 5.00000000e-001 8.75000000e-001
      5.62500000e-001 5.00000000e-001 1. 2.50000000e-001 1.25000000e-001
      8.12500000e-001 6.87500000e-001 4.37500000e-001 0.</_>
    <_>
      0. 1.87500000e-001 7.50000000e-001 5.00000000e-001 1.87500000e-001
      1.25000000e-001 8.75000000e-001 4.37500000e-001 6.87500000e-001
      8.75000000e-001 5.00000000e-001 2.50000000e-001 0. 0. 1.
      5.62500000e-001 1.87500000e-001 0. 0. 1. 7.50000000e-001
      2.50000000e-001 0. 0. 1. 7.50000000e-001 2.50000000e-001 0.
      1.87500000e-001 9.37500000e-001 9.37500000e-001 0. 0.
      2.50000000e-001 7.50000000e-001 1. 0. 0. 3.12500000e-001
      6.87500000e-001 1. 6.25000000e-002 0. 5.62500000e-001
      3.75000000e-001 5.62500000e-001 8.75000000e-001 8.12500000e-001
      6.25000000e-001 0.</_>
    <_>
      0. 3.12500000e-001 7.50000000e-001 5.62500000e-001 1.25000000e-001
      1.25000000e-001 9.37500000e-001 4.37500000e-001 6.87500000e-001
      8.12500000e-001 5.00000000e-001 5.62500000e-001 0. 0. 1.
      5.00000000e-001 5.00000000e-001 0. 1.25000000e-001 8.75000000e-001
      6.25000000e-001 3.12500000e-001 0. 2.50000000e-001 7.50000000e-001
      7.50000000e-001 2.50000000e-001 0. 2.50000000e-001 7.50000000e-001
      7.50000000e-001 2.50000000e-001 0. 2.50000000e-001 6.87500000e-001
      8.75000000e-001 1.87500000e-001 0. 5.00000000e-001 5.00000000e-001
      9.37500000e-001 3.12500000e-001 1.87500000e-001 7.50000000e-001
      2.50000000e-001 3.75000000e-001 8.75000000e-001 9.37500000e-001
      4.37500000e-001 0.</_>
    <_>
      6.25000000e-002 6.87500000e-001 1. 9.37500000e-001 3.12500000e-001
      6.25000000e-001 5.62500000e-001 0. 1.87500000e-001 1.
      8.12500000e-001 2.50000000e-001 0. 0. 7.50000000e-001 1.
      2.50000000e-001 0. 0. 7.50000000e-001 1. 2.50000000e-001 0. 0.
      7.50000000e-001 1. 1.87500000e-001 0. 0. 7.50000000e-001 1. 0. 0.
      0. 1. 1. 1.87500000e-001 0. 6.25000000e-002 9.37500000e-001
      7.50000000e-001 6.87500000e-001 6.25000000e-002 6.25000000e-001
      5.62500000e-001 6.25000000e-002 5.00000000e-001 6.87500000e-001
      4.37500000e-001 0.</_>
    <_>
      0. 1.25000000e-001 6.25000000e-001 5.00000000e-001 1.87500000e-001
      6.25000000e-002 8.75000000e-001 4.37500000e-001 5.62500000e-001
      8.75000000e-001 4.37500000e-001 5.62500000e-001 0. 0. 1.
      5.00000000e-001 3.75000000e-001 0. 0. 1. 7.50000000e-001
      2.50000000e-001 0. 0. 7.50000000e-001 8.12500000e-001 0. 0.
      1.87500000e-001 6.87500000e-001 1. 0. 0. 3.12500000e-001
      5.00000000e-001 8.12500000e-001 0. 0. 5.00000000e-001
      4.37500000e-001 9.37500000e-001 6.25000000e-002 6.25000000e-002
      8.12500000e-001 1.25000000e-001 3.75000000e-001 8.12500000e-001
      7.50000000e-001 3.12500000e-001 0.</_>
    <_>
      3.12500000e-001 1. 1. 9.37500000e-001 6.25000000e-002
      8.12500000e-001 6.87500000e-001 2.50000000e-001 8.75000000e-001
      5.00000000e-001 1. 3.12500000e-001 0. 5.62500000e-001
      7.50000000e-001 1. 2.50000000e-001 0. 3.12500000e-001
      7.50000000e-001 1. 2.50000000e-001 0. 5.00000000e-001
      8.75000000e-001 1. 1.87500000e-001 0. 2.50000000e-001
      7.50000000e-001 7.50000000e-001 0. 0. 5.00000000e-001
      6.87500000e-001 7.50000000e-001 1.25000000e-001 0. 5.62500000e-001
      7.50000000e-001 7.50000000e-001 6.87500000e-001 6.25000000e-002
      8.12500000e-001 4.37500000e-001 1.87500000e-001 9.37500000e-001 1.
      4.37500000e-001 6.25000000e-002</_>
    <_>
      0. 2.50000000e-001 9.37500000e-001 6.25000000e-001 1.25000000e-001
      5.00000000e-001 9.37500000e-001 5.00000000e-001 8.12500000e-001
      7.50000000e-001 7.50000000e-001 5.00000000e-001 0. 3.12500000e-001
      1. 1. 3.75000000e-001 0. 2.50000000e-001 9.37500000e-001 1.
      2.50000000e-001 0. 2.50000000e-001 7.50000000e-001 1.
      2.50000000e-001 0. 1.87500000e-001 7.50000000e-001 1. 0. 0. 0.
      5.00000000e-001 1. 6.25000000e-002 0. 2.50000000e-001
      3.12500000e-001 9.37500000e-001 3.12500000e-001 0. 3.75000000e-001
      1.25000000e-001 1.87500000e-001 8.75000000e-001 4.37500000e-001 0.
      0.</_>
    <_>
      1.87500000e-001 8.12500000e-001 1. 8.12500000e-001 1.87500000e-001
      8.75000000e-001 1. 7.50000000e-001 9.37500000e-001 8.75000000e-001
      1. 5.62500000e-001 0. 5.00000000e-001 1. 1. 5.00000000e-001 0.
      3.12500000e-001 1. 1. 3.12500000e-001 0. 2.50000000e-001 1. 1.
      3.75000000e-001 0. 2.50000000e-001 1. 1. 5.00000000e-001 0.
      2.50000000e-001 1. 1. 5.62500000e-001 0. 3.12500000e-001 1.
      8.75000000e-001 1. 1. 1. 1. 1.87500000e-001 7.50000000e-001 1. 1.
      8.12500000e-001</_>
    <_>
      5.00000000e-001 1. 1. 7.50000000e-001 1.87500000e-001 1.
      8.12500000e-001 2.50000000e-001 8.75000000e-001 8.12500000e-001 1.
      3.12500000e-001 0. 5.62500000e-001 1. 1. 2.50000000e-001 0.
      5.00000000e-001 1. 1. 2.50000000e-001 0. 5.00000000e-001 1. 1.
      2.50000000e-001 0. 5.00000000e-001 1. 1. 2.50000000e-001 0.
      5.00000000e-001 1. 1. 2.50000000e-001 0. 5.00000000e-001 1.
      9.37500000e-001 8.75000000e-001 7.50000000e-001 1. 9.37500000e-001
      3.12500000e-001 9.37500000e-001 1. 1. 5.00000000e-001</_>
    <_>
      1.25000000e-001 6.87500000e-001 1. 1. 8.75000000e-001
      5.62500000e-001 9.37500000e-001 1.87500000e-001 4.37500000e-001 1.
      7.50000000e-001 5.62500000e-001 0. 0. 1. 7.50000000e-001
      5.00000000e-001 0. 0. 9.37500000e-001 8.75000000e-001
      5.00000000e-001 0. 0. 9.37500000e-001 1. 4.37500000e-001 0.
      1.25000000e-001 1. 1. 2.50000000e-001 0. 2.50000000e-001 1. 1.
      2.50000000e-001 0. 3.75000000e-001 9.37500000e-001 7.50000000e-001
      6.87500000e-001 6.25000000e-002 8.12500000e-001 5.62500000e-001
      1.87500000e-001 9.37500000e-001 1. 8.12500000e-001 6.25000000e-002</_>
    <_>
      6.25000000e-002 7.50000000e-001 9.37500000e-001 5.00000000e-001
      6.25000000e-002 5.00000000e-001 8.75000000e-001 3.75000000e-001
      8.75000000e-001 6.87500000e-001 7.50000000e-001 5.00000000e-001 0.
      2.50000000e-001 1. 9.37500000e-001 3.12500000e-001 0.
      2.50000000e-001 8.75000000e-001 1. 2.50000000e-001 0.
      2.50000000e-001 7.50000000e-001 1. 2.50000000e-001 0.
      2.50000000e-001 8.75000000e-001 1. 2.50000000e-001 0.
      3.75000000e-001 1. 1. 3.75000000e-001 0. 5.00000000e-001
      8.12500000e-001 7.50000000e-001 8.12500000e-001 4.37500000e-001
      8.12500000e-001 6.25000000e-001 1.87500000e-001 5.62500000e-001
      8.75000000e-001 9.37500000e-001 6.25000000e-002</_>
    <_>
      7.50000000e-001 1. 9.37500000e-001 3.12500000e-001 0.
      8.12500000e-001 9.37500000e-001 8.12500000e-001 1. 1.25000000e-001
      1. 5.00000000e-001 0. 9.37500000e-001 4.37500000e-001 1.
      5.00000000e-001 0. 7.50000000e-001 5.00000000e-001 9.37500000e-001
      5.62500000e-001 0. 7.50000000e-001 5.00000000e-001 7.50000000e-001
      7.50000000e-001 0. 5.62500000e-001 7.50000000e-001 7.50000000e-001
      8.12500000e-001 0. 5.00000000e-001 1. 6.25000000e-001 1.
      6.25000000e-002 6.25000000e-001 9.37500000e-001 1.25000000e-001
      8.12500000e-001 1. 1. 6.25000000e-001 0. 0. 5.62500000e-001
      8.12500000e-001 6.25000000e-002</_>
    <_>
      5.62500000e-001 1. 1. 9.37500000e-001 1.87500000e-001 1.
      8.75000000e-001 6.87500000e-001 1. 6.87500000e-001 1.
      3.12500000e-001 0. 8.12500000e-001 8.75000000e-001 1.
      2.50000000e-001 0. 5.00000000e-001 1. 1. 2.50000000e-001 0.
      5.00000000e-001 1. 1. 2.50000000e-001 0. 5.00000000e-001 1. 1.
      3.12500000e-001 0. 5.00000000e-001 1. 8.75000000e-001
      5.00000000e-001 0. 5.00000000e-001 1. 5.62500000e-001
      8.75000000e-001 2.50000000e-001 8.12500000e-001 1. 1.25000000e-001
      9.37500000e-001 1. 1. 5.62500000e-001</_>
    <_>
      4.37500000e-001 7.50000000e-001 1. 6.25000000e-001 1.25000000e-001
      7.50000000e-001 9.37500000e-001 7.50000000e-001 1. 4.37500000e-001
      7.50000000e-001 5.00000000e-001 0. 6.87500000e-001 5.00000000e-001
      7.50000000e-001 5.00000000e-001 0. 5.00000000e-001 5.00000000e-001
      7.50000000e-001 5.00000000e-001 0. 5.00000000e-001 6.87500000e-001
      7.50000000e-001 7.50000000e-001 0. 2.50000000e-001 9.37500000e-001
      6.87500000e-001 7.50000000e-001 0. 2.50000000e-001 1.
      4.37500000e-001 8.75000000e-001 0. 2.50000000e-001 1.
      1.25000000e-001 1. 5.62500000e-001 8.12500000e-001 1. 0.
      5.62500000e-001 8.75000000e-001 8.75000000e-001 5.00000000e-001</_>
    <_>
      6.25000000e-001 8.75000000e-001 1. 6.25000000e-001 0. 1.
      8.75000000e-001 7.50000000e-001 1. 2.50000000e-001 1.
      1.25000000e-001 0. 8.75000000e-001 3.12500000e-001 1.
      2.50000000e-001 0. 7.50000000e-001 5.00000000e-001 7.50000000e-001
      3.75000000e-001 0. 6.25000000e-001 6.25000000e-001 7.50000000e-001
      5.00000000e-001 0. 5.00000000e-001 7.50000000e-001 7.50000000e-001
      5.62500000e-001 0. 4.37500000e-001 8.75000000e-001 6.25000000e-001
      7.50000000e-001 0. 3.12500000e-001 1. 3.12500000e-001
      9.37500000e-001 3.12500000e-001 7.50000000e-001 1. 6.25000000e-002
      9.37500000e-001 1. 1. 5.00000000e-001</_>
    <_>
      5.00000000e-001 8.75000000e-001 1. 5.62500000e-001 0. 1.
      8.12500000e-001 5.62500000e-001 1. 4.37500000e-001 1.
      5.00000000e-001 0. 6.25000000e-001 7.50000000e-001 7.50000000e-001
      5.00000000e-001 0. 5.00000000e-001 8.75000000e-001 7.50000000e-001
      5.00000000e-001 0. 5.00000000e-001 1. 7.50000000e-001
      5.00000000e-001 0. 5.00000000e-001 9.37500000e-001 7.50000000e-001
      5.00000000e-001 0. 5.00000000e-001 7.50000000e-001 7.50000000e-001
      6.25000000e-001 0. 5.62500000e-001 9.37500000e-001 4.37500000e-001
      9.37500000e-001 6.25000000e-001 9.37500000e-001 8.75000000e-001
      6.25000000e-002 6.25000000e-001 1. 7.50000000e-001 1.25000000e-001</_>
    <_>
      6.25000000e-001 1. 1. 9.37500000e-001 1.87500000e-001
      9.37500000e-001 3.12500000e-001 1.25000000e-001 6.87500000e-001
      5.00000000e-001 1. 2.50000000e-001 0. 5.00000000e-001
      7.50000000e-001 9.37500000e-001 2.50000000e-001 0. 2.50000000e-001
      7.50000000e-001 7.50000000e-001 5.00000000e-001 0. 2.50000000e-001
      7.50000000e-001 7.50000000e-001 5.00000000e-001 0. 2.50000000e-001
      8.75000000e-001 7.50000000e-001 5.00000000e-001 0. 2.50000000e-001
      1. 5.62500000e-001 7.50000000e-001 0. 2.50000000e-001 1.
      2.50000000e-001 1. 4.37500000e-001 8.12500000e-001 8.75000000e-001
      0. 3.75000000e-001 9.37500000e-001 9.37500000e-001 1.87500000e-001</_>
    <_>
      3.12500000e-001 8.75000000e-001 1. 8.75000000e-001 1.25000000e-001
      1. 8.12500000e-001 5.00000000e-001 9.37500000e-001 4.37500000e-001
      1. 3.12500000e-001 0. 6.87500000e-001 8.12500000e-001 1.
      3.12500000e-001 0. 5.00000000e-001 1. 1. 5.00000000e-001 0.
      3.12500000e-001 1. 1. 5.00000000e-001 0. 2.50000000e-001 1. 1.
      5.00000000e-001 0. 2.50000000e-001 1. 9.37500000e-001
      6.25000000e-001 0. 3.12500000e-001 1. 6.25000000e-001 1.
      3.75000000e-001 8.12500000e-001 1. 6.25000000e-002 9.37500000e-001
      1. 1. 8.12500000e-001</_>
    <_>
      3.12500000e-001 1. 1. 6.87500000e-001 0. 8.12500000e-001
      7.50000000e-001 2.50000000e-001 8.75000000e-001 4.37500000e-001 1.
      5.00000000e-001 0. 5.62500000e-001 8.75000000e-001 8.75000000e-001
      5.00000000e-001 0. 5.00000000e-001 1. 7.50000000e-001
      5.00000000e-001 0. 3.75000000e-001 1. 7.50000000e-001
      5.00000000e-001 0. 2.50000000e-001 1. 7.50000000e-001
      5.00000000e-001 0. 3.75000000e-001 1. 7.50000000e-001
      6.87500000e-001 0. 5.00000000e-001 1. 3.75000000e-001
      9.37500000e-001 3.12500000e-001 6.87500000e-001 9.37500000e-001 0.
      5.62500000e-001 9.37500000e-001 1. 3.75000000e-001</_>
    <_>
      5.00000000e-001 1. 9.37500000e-001 3.75000000e-001 0. 1.
      1.25000000e-001 2.50000000e-001 8.75000000e-001 6.25000000e-002 1.
      0. 0. 6.25000000e-001 2.50000000e-001 8.75000000e-001 0. 0.
      5.00000000e-001 5.00000000e-001 7.50000000e-001 2.50000000e-001 0.
      3.75000000e-001 5.00000000e-001 5.00000000e-001 2.50000000e-001 0.
      2.50000000e-001 7.50000000e-001 5.00000000e-001 4.37500000e-001 0.
      1.25000000e-001 7.50000000e-001 2.50000000e-001 6.25000000e-001 0.
      0. 9.37500000e-001 6.25000000e-002 8.75000000e-001 3.12500000e-001
      3.75000000e-001 8.75000000e-001 0. 1.87500000e-001 8.75000000e-001
      1. 3.75000000e-001</_>
    <_>
      1.25000000e-001 9.37500000e-001 7.50000000e-001 7.50000000e-001
      1.87500000e-001 5.62500000e-001 9.37500000e-001 3.12500000e-001
      7.50000000e-001 8.12500000e-001 7.50000000e-001 5.00000000e-001 0.
      2.50000000e-001 1. 7.50000000e-001 3.75000000e-001 0.
      2.50000000e-001 1. 8.75000000e-001 2.50000000e-001 0.
      2.50000000e-001 1. 1. 2.50000000e-001 0. 2.50000000e-001 1. 1.
      2.50000000e-001 0. 3.12500000e-001 7.50000000e-001 1.
      2.50000000e-001 0. 5.62500000e-001 7.50000000e-001 6.25000000e-001
      5.62500000e-001 0. 8.75000000e-001 4.37500000e-001 0.
      3.75000000e-001 5.62500000e-001 5.00000000e-001 0.</_>
    <_>
      6.25000000e-002 6.25000000e-001 8.12500000e-001 8.12500000e-001 0.
      6.25000000e-001 8.12500000e-001 6.25000000e-002 7.50000000e-001
      6.25000000e-001 9.37500000e-001 3.12500000e-001 0. 2.50000000e-001
      1. 1. 1.87500000e-001 0. 2.50000000e-001 1. 1. 0. 0.
      2.50000000e-001 1. 1. 0. 0. 2.50000000e-001 1. 1. 0. 0.
      2.50000000e-001 8.12500000e-001 1. 0. 0. 4.37500000e-001
      7.50000000e-001 9.37500000e-001 1.87500000e-001 0. 6.25000000e-001
      6.25000000e-001 3.12500000e-001 6.87500000e-001 3.75000000e-001
      8.75000000e-001 6.25000000e-002</_>
    <_>
      3.75000000e-001 1. 1. 1. 3.12500000e-001 8.75000000e-001
      8.12500000e-001 3.12500000e-001 6.25000000e-001 8.75000000e-001 1.
      3.75000000e-001 0. 2.50000000e-001 1. 1. 2.50000000e-001 0.
      2.50000000e-001 1. 1. 2.50000000e-001 0. 2.50000000e-001 1. 1.
      2.50000000e-001 0. 2.50000000e-001 1. 1. 2.50000000e-001 0.
      3.12500000e-001 1. 1. 2.50000000e-001 0. 5.00000000e-001 1. 1.
      3.75000000e-001 0. 7.50000000e-001 8.12500000e-001 3.75000000e-001
      1. 8.12500000e-001 1. 2.50000000e-001</_>
    <_>
      5.00000000e-001 1. 8.12500000e-001 1. 3.75000000e-001
      9.37500000e-001 4.37500000e-001 0. 6.25000000e-001 8.75000000e-001
      1. 6.25000000e-002 0. 1.87500000e-001 1. 1. 1.25000000e-001 0. 0.
      1. 1. 2.50000000e-001 0. 0. 1. 1. 2.50000000e-001 0. 0. 1.
      9.37500000e-001 2.50000000e-001 0. 0. 1. 7.50000000e-001
      2.50000000e-001 0. 0. 1. 6.87500000e-001 4.37500000e-001 0. 0. 1.
      3.75000000e-001 9.37500000e-001 4.37500000e-001 6.25000000e-001 1.</_>
    <_>
      1.87500000e-001 9.37500000e-001 1. 8.12500000e-001 1.25000000e-001
      6.25000000e-001 8.75000000e-001 4.37500000e-001 9.37500000e-001
      5.62500000e-001 7.50000000e-001 5.00000000e-001 0. 5.00000000e-001
      7.50000000e-001 7.50000000e-001 3.12500000e-001 0. 5.00000000e-001
      7.50000000e-001 7.50000000e-001 2.50000000e-001 0. 2.50000000e-001
      7.50000000e-001 7.50000000e-001 2.50000000e-001 0. 2.50000000e-001
      7.50000000e-001 7.50000000e-001 3.12500000e-001 0. 2.50000000e-001
      7.50000000e-001 7.50000000e-001 5.00000000e-001 0. 2.50000000e-001
      7.50000000e-001 5.00000000e-001 6.25000000e-001 0. 3.75000000e-001
      5.00000000e-001 1.25000000e-001 6.25000000e-001 5.00000000e-001
      2.50000000e-001 6.25000000e-002</_>
    <_>
      7.50000000e-001 1. 1.25000000e-001 0. 0. 1. 9.37500000e-001
      9.37500000e-001 0. 0. 5.62500000e-001 6.25000000e-002 1.
      2.50000000e-001 0. 3.12500000e-001 0. 1. 2.50000000e-001
      1.87500000e-001 2.50000000e-001 0. 1. 2.50000000e-001
      2.50000000e-001 2.50000000e-001 0. 8.75000000e-001 2.50000000e-001
      5.00000000e-001 4.37500000e-001 0. 8.75000000e-001 2.50000000e-001
      5.00000000e-001 5.62500000e-001 1.25000000e-001 1. 0.
      7.50000000e-001 1. 8.75000000e-001 7.50000000e-001 0.
      8.12500000e-001 4.37500000e-001 1. 4.37500000e-001 4.37500000e-001
      1.</_>
    <_>
      1.87500000e-001 9.37500000e-001 2.50000000e-001 0. 0.
      8.12500000e-001 5.00000000e-001 8.12500000e-001 0. 1.87500000e-001
      1. 0. 5.62500000e-001 3.12500000e-001 2.50000000e-001 1. 0.
      5.00000000e-001 5.00000000e-001 0. 1. 0. 5.00000000e-001
      5.00000000e-001 0. 8.75000000e-001 0. 3.12500000e-001
      5.00000000e-001 0. 7.50000000e-001 0. 2.50000000e-001
      6.25000000e-001 0. 7.50000000e-001 2.50000000e-001 2.50000000e-001
      6.87500000e-001 0. 3.75000000e-001 8.75000000e-001 8.12500000e-001
      4.37500000e-001 0. 0. 4.37500000e-001 6.87500000e-001
      6.25000000e-002 0.</_>
    <_>
      4.37500000e-001 1. 6.25000000e-001 0. 0. 9.37500000e-001
      3.12500000e-001 8.12500000e-001 6.25000000e-002 1.87500000e-001 1.
      0. 5.00000000e-001 3.12500000e-001 1.25000000e-001 1. 0.
      5.00000000e-001 5.00000000e-001 0. 1. 0. 5.00000000e-001
      5.00000000e-001 0. 1. 0. 5.00000000e-001 5.00000000e-001 0. 1. 0.
      2.50000000e-001 5.00000000e-001 0. 7.50000000e-001 6.25000000e-002
      3.75000000e-001 5.00000000e-001 0. 6.25000000e-001 6.87500000e-001
      8.12500000e-001 5.00000000e-001 1.25000000e-001 1.25000000e-001
      6.87500000e-001 6.25000000e-001 1.25000000e-001 3.75000000e-001</_>
    <_>
      0. 0. 1.25000000e-001 6.25000000e-002 0. 0. 6.25000000e-002
      7.50000000e-001 8.12500000e-001 6.25000000e-002 0. 3.75000000e-001
      1.87500000e-001 3.12500000e-001 2.50000000e-001 0. 5.00000000e-001
      6.25000000e-002 2.50000000e-001 2.50000000e-001 0. 5.00000000e-001
      0. 2.50000000e-001 2.50000000e-001 0. 5.00000000e-001 0.
      2.50000000e-001 2.50000000e-001 0. 5.00000000e-001 0.
      2.50000000e-001 2.50000000e-001 0. 5.00000000e-001 6.25000000e-002
      3.12500000e-001 2.50000000e-001 0. 1.87500000e-001 7.50000000e-001
      6.87500000e-001 6.25000000e-002 0. 0. 1.25000000e-001
      1.87500000e-001 0.</_>
    <_>
      3.12500000e-001 8.75000000e-001 1. 9.37500000e-001 1.87500000e-001
      8.75000000e-001 8.12500000e-001 1.25000000e-001 8.12500000e-001
      7.50000000e-001 1. 5.00000000e-001 0. 5.00000000e-001
      8.12500000e-001 9.37500000e-001 5.00000000e-001 0. 3.75000000e-001
      1. 7.50000000e-001 5.00000000e-001 0. 2.50000000e-001 1.
      7.50000000e-001 5.00000000e-001 0. 2.50000000e-001 1.
      7.50000000e-001 5.00000000e-001 0. 2.50000000e-001 1.
      5.62500000e-001 8.75000000e-001 6.25000000e-002 5.00000000e-001 1.
      6.25000000e-002 8.75000000e-001 1. 1. 6.87500000e-001
      7.50000000e-001 8.75000000e-001 9.37500000e-001 8.12500000e-001
      6.25000000e-001</_>
    <_>
      0. 8.12500000e-001 1. 1. 2.50000000e-001 3.12500000e-001
      9.37500000e-001 6.25000000e-002 5.62500000e-001 6.87500000e-001
      5.00000000e-001 7.50000000e-001 0. 2.50000000e-001 8.75000000e-001
      2.50000000e-001 7.50000000e-001 0. 2.50000000e-001 1.
      2.50000000e-001 7.50000000e-001 0. 2.50000000e-001 1.
      2.50000000e-001 7.50000000e-001 0. 6.25000000e-002 1.
      2.50000000e-001 7.50000000e-001 0. 0. 1. 1.87500000e-001 1.
      6.25000000e-002 3.12500000e-001 1. 0. 8.75000000e-001
      8.75000000e-001 9.37500000e-001 8.12500000e-001 1.25000000e-001
      3.12500000e-001 1. 1. 4.37500000e-001</_>
    <_>
      6.25000000e-002 6.25000000e-001 1. 8.75000000e-001 1.87500000e-001
      4.37500000e-001 1. 3.75000000e-001 7.50000000e-001 7.50000000e-001
      5.00000000e-001 7.50000000e-001 0. 2.50000000e-001 1.
      5.00000000e-001 7.50000000e-001 0. 2.50000000e-001 1.
      5.00000000e-001 7.50000000e-001 0. 0. 1. 3.75000000e-001
      7.50000000e-001 0. 0. 1. 2.50000000e-001 8.12500000e-001 0.
      6.25000000e-002 1. 1.25000000e-001 1. 3.75000000e-001
      5.00000000e-001 9.37500000e-001 0. 6.25000000e-001 1. 1.
      6.25000000e-001 6.25000000e-001 1.87500000e-001 4.37500000e-001
      5.00000000e-001 1.</_>
    <_>
      3.75000000e-001 8.12500000e-001 1. 6.87500000e-001 6.25000000e-002
      9.37500000e-001 5.62500000e-001 2.50000000e-001 7.50000000e-001
      6.87500000e-001 1. 2.50000000e-001 0. 2.50000000e-001 1. 1.
      2.50000000e-001 0. 2.50000000e-001 1. 1. 2.50000000e-001 0.
      2.50000000e-001 1. 1. 2.50000000e-001 0. 2.50000000e-001 1. 1.
      2.50000000e-001 0. 2.50000000e-001 1. 6.87500000e-001
      5.62500000e-001 0. 4.37500000e-001 9.37500000e-001 6.25000000e-002
      8.12500000e-001 1. 1. 3.75000000e-001 3.75000000e-001
      6.87500000e-001 7.50000000e-001 6.87500000e-001 7.50000000e-001</_>
    <_>
      1.87500000e-001 9.37500000e-001 1. 7.50000000e-001 6.25000000e-002
      6.87500000e-001 8.12500000e-001 3.12500000e-001 8.75000000e-001
      6.87500000e-001 8.75000000e-001 5.00000000e-001 0. 5.00000000e-001
      8.12500000e-001 7.50000000e-001 5.00000000e-001 0. 3.12500000e-001
      1. 7.50000000e-001 5.00000000e-001 0. 2.50000000e-001 1.
      5.62500000e-001 6.25000000e-001 0. 2.50000000e-001 1.
      5.00000000e-001 7.50000000e-001 0. 2.50000000e-001 1.
      3.75000000e-001 1. 3.12500000e-001 5.62500000e-001 9.37500000e-001
      0. 5.00000000e-001 1. 1. 5.00000000e-001 5.00000000e-001
      7.50000000e-001 1. 1. 4.37500000e-001</_>
    <_>
      0. 7.50000000e-001 1. 9.37500000e-001 3.75000000e-001
      6.87500000e-001 8.75000000e-001 5.00000000e-001 8.12500000e-001 1.
      1. 5.00000000e-001 0. 2.50000000e-001 1. 1. 5.00000000e-001 0.
      2.50000000e-001 1. 1. 5.00000000e-001 0. 2.50000000e-001 1. 1.
      5.00000000e-001 0. 2.50000000e-001 1. 1. 5.00000000e-001 0.
      2.50000000e-001 1. 8.75000000e-001 8.12500000e-001 3.12500000e-001
      8.12500000e-001 1. 1.87500000e-001 9.37500000e-001 1. 1.
      3.12500000e-001 5.62500000e-001 9.37500000e-001 1. 1.
      7.50000000e-001</_>
    <_>
      6.25000000e-002 7.50000000e-001 1. 8.75000000e-001 2.50000000e-001
      4.37500000e-001 8.12500000e-001 1.87500000e-001 5.62500000e-001
      9.37500000e-001 6.87500000e-001 5.00000000e-001 0. 1.87500000e-001
      1. 7.50000000e-001 5.00000000e-001 0. 2.50000000e-001 1.
      7.50000000e-001 3.75000000e-001 0. 2.50000000e-001 1.
      7.50000000e-001 2.50000000e-001 0. 2.50000000e-001 1.
      8.75000000e-001 2.50000000e-001 0. 2.50000000e-001 1.
      9.37500000e-001 3.75000000e-001 0. 4.37500000e-001 1.
      5.62500000e-001 9.37500000e-001 6.87500000e-001 9.37500000e-001 1.
      0. 5.62500000e-001 1. 1. 1.</_>
    <_>
      0. 0. 3.75000000e-001 1.25000000e-001 0. 0. 2.50000000e-001 0. 0.
      5.00000000e-001 3.75000000e-001 7.50000000e-001 0. 0.
      8.75000000e-001 5.00000000e-001 7.50000000e-001 0. 0. 1.
      5.62500000e-001 7.50000000e-001 0. 2.50000000e-001 1.
      7.50000000e-001 7.50000000e-001 0. 5.00000000e-001 1.
      8.12500000e-001 5.00000000e-001 0. 5.00000000e-001 1.
      9.37500000e-001 6.87500000e-001 6.25000000e-002 8.12500000e-001
      8.75000000e-001 6.87500000e-001 1. 1. 1. 3.12500000e-001
      1.87500000e-001 8.75000000e-001 1. 4.37500000e-001 0.</_>
    <_>
      3.12500000e-001 1. 6.25000000e-001 6.25000000e-002 0.
      5.00000000e-001 1. 1. 5.00000000e-001 0. 2.50000000e-001 1. 1.
      5.00000000e-001 0. 2.50000000e-001 1. 1. 7.50000000e-001 0.
      2.50000000e-001 1. 1. 8.75000000e-001 0. 1.25000000e-001 1. 1. 1.
      0. 0. 1. 1. 1. 1.25000000e-001 0. 8.12500000e-001 1. 1.
      2.50000000e-001 0. 7.50000000e-001 1. 1. 3.75000000e-001 0.
      1.87500000e-001 6.87500000e-001 7.50000000e-001 1.25000000e-001</_>
    <_>
      0. 7.50000000e-001 8.75000000e-001 0. 0. 0. 8.12500000e-001 1. 0.
      0. 0. 7.50000000e-001 1. 0. 0. 0. 7.50000000e-001 1.
      2.50000000e-001 0. 0. 7.50000000e-001 1. 2.50000000e-001 0. 0.
      5.00000000e-001 1. 2.50000000e-001 0. 0. 5.00000000e-001 1.
      2.50000000e-001 0. 0. 5.00000000e-001 1. 5.00000000e-001 0. 0.
      3.12500000e-001 1. 5.00000000e-001 0. 0. 2.50000000e-001 1.
      5.62500000e-001 0.</_>
    <_>
      0. 1. 4.37500000e-001 0. 0. 0. 1. 5.62500000e-001 0. 0. 0. 1.
      7.50000000e-001 0. 0. 0. 8.75000000e-001 7.50000000e-001 0. 0. 0.
      7.50000000e-001 7.50000000e-001 0. 0. 0. 7.50000000e-001
      9.37500000e-001 0. 0. 0. 7.50000000e-001 1. 0. 0. 0.
      6.87500000e-001 1. 0. 0. 0. 5.00000000e-001 1. 0. 0. 0.
      5.00000000e-001 1. 1.25000000e-001 0.</_>
    <_>
      3.12500000e-001 2.50000000e-001 7.50000000e-001 2.50000000e-001 1.
      8.12500000e-001 1.25000000e-001 9.37500000e-001 2.50000000e-001 1.
      1. 0. 1. 1.87500000e-001 1. 7.50000000e-001 0. 1. 2.50000000e-001
      1. 3.12500000e-001 0. 1. 2.50000000e-001 1. 0. 0. 1.
      2.50000000e-001 1. 0. 0. 1. 2.50000000e-001 7.50000000e-001 0. 0.
      8.75000000e-001 3.75000000e-001 7.50000000e-001 0. 0.
      7.50000000e-001 6.87500000e-001 6.87500000e-001 1. 1.25000000e-001
      8.12500000e-001 5.00000000e-001 1.25000000e-001</_>
    <_>
      1.25000000e-001 1.25000000e-001 1.25000000e-001 3.12500000e-001 0.
      2.50000000e-001 0. 3.12500000e-001 6.87500000e-001 0.
      2.50000000e-001 0. 3.75000000e-001 7.50000000e-001 0.
      2.50000000e-001 0. 5.00000000e-001 7.50000000e-001 0.
      2.50000000e-001 0. 5.00000000e-001 7.50000000e-001 0.
      2.50000000e-001 0. 5.00000000e-001 7.50000000e-001 0.
      2.50000000e-001 0. 5.00000000e-001 7.50000000e-001 0. 0. 0.
      5.00000000e-001 7.50000000e-001 0. 0. 0. 5.00000000e-001
      7.50000000e-001 0. 0. 0. 1.87500000e-001 2.50000000e-001 0.</_>
    <_>
      2.50000000e-001 1. 1. 6.25000000e-002 0. 2.50000000e-001 1. 1.
      2.50000000e-001 0. 1.87500000e-001 1. 1. 2.50000000e-001 0. 0. 1.
      1. 4.37500000e-001 0. 0. 1. 1. 5.62500000e-001 0. 0.
      7.50000000e-001 1. 7.50000000e-001 0. 0. 5.00000000e-001 1.
      9.37500000e-001 0. 0. 5.00000000e-001 1. 1. 1.25000000e-001 0.
      4.37500000e-001 1. 1. 3.75000000e-001 0. 6.25000000e-002
      6.25000000e-001 6.87500000e-001 6.25000000e-002</_>
    <_>
      0. 2.50000000e-001 7.50000000e-001 2.50000000e-001 0. 0.
      8.75000000e-001 1. 7.50000000e-001 0. 0. 1. 1. 9.37500000e-001 0.
      0. 9.37500000e-001 1. 1. 0. 0. 7.50000000e-001 1. 8.75000000e-001
      0. 0. 7.50000000e-001 1. 7.50000000e-001 0. 0. 7.50000000e-001 1.
      7.50000000e-001 0. 0. 6.25000000e-001 1. 7.50000000e-001 0. 0.
      5.00000000e-001 1. 7.50000000e-001 0. 0. 1.87500000e-001
      8.75000000e-001 4.37500000e-001 0.</_>
    <_>
      0. 0. 5.00000000e-001 6.25000000e-001 0. 0. 0. 7.50000000e-001
      7.50000000e-001 0. 0. 0. 8.12500000e-001 6.25000000e-001 0. 0. 0.
      1. 5.00000000e-001 0. 0. 2.50000000e-001 1. 3.12500000e-001 0. 0.
      3.12500000e-001 1. 1.87500000e-001 0. 0. 5.00000000e-001 1. 0. 0.
      0. 7.50000000e-001 8.12500000e-001 0. 0. 0. 7.50000000e-001
      6.87500000e-001 0. 0. 0. 3.75000000e-001 3.12500000e-001 0. 0.</_>
    <_>
      0. 0. 4.37500000e-001 5.62500000e-001 0. 0. 0. 7.50000000e-001
      6.87500000e-001 0. 0. 0. 7.50000000e-001 5.00000000e-001 0. 0. 0.
      8.75000000e-001 2.50000000e-001 0. 0. 0. 1. 1.25000000e-001 0. 0.
      1.87500000e-001 1. 0. 0. 0. 2.50000000e-001 9.37500000e-001 0. 0.
      0. 4.37500000e-001 7.50000000e-001 0. 0. 0. 5.62500000e-001
      5.00000000e-001 0. 0. 0. 5.00000000e-001 3.12500000e-001 0. 0.</_>
    <_>
      0. 5.62500000e-001 1. 4.37500000e-001 0. 0. 1. 1. 7.50000000e-001
      0. 0. 7.50000000e-001 1. 7.50000000e-001 0. 0. 7.50000000e-001 1.
      5.62500000e-001 0. 0. 7.50000000e-001 1. 5.00000000e-001 0. 0.
      6.25000000e-001 1. 5.00000000e-001 0. 0. 5.00000000e-001 1.
      5.00000000e-001 0. 0. 7.50000000e-001 1. 5.00000000e-001 0. 0.
      7.50000000e-001 1. 5.00000000e-001 0. 0. 5.62500000e-001 1.
      2.50000000e-001 0.</_>
    <_>
      0. 1.87500000e-001 5.00000000e-001 0. 0. 0. 5.00000000e-001 1. 0.
      0. 0. 5.00000000e-001 1. 0. 0. 0. 5.00000000e-001 1. 0. 0. 0.
      5.00000000e-001 1. 1.87500000e-001 0. 0. 5.00000000e-001 1.
      2.50000000e-001 0. 0. 5.00000000e-001 1. 2.50000000e-001 0. 0.
      5.00000000e-001 1. 2.50000000e-001 0. 0. 5.00000000e-001 1.
      2.50000000e-001 0. 0. 1.87500000e-001 8.12500000e-001
      1.87500000e-001 0.</_>
    <_>
      0. 0. 8.75000000e-001 2.50000000e-001 0. 0. 0. 7.50000000e-001
      2.50000000e-001 0. 0. 0. 1. 2.50000000e-001 0. 0. 0. 1. 0. 0. 0.
      6.25000000e-002 1. 0. 0. 0. 2.50000000e-001 1. 0. 1.87500000e-001
      0. 2.50000000e-001 9.37500000e-001 0. 2.50000000e-001 0.
      2.50000000e-001 7.50000000e-001 0. 2.50000000e-001 0.
      5.00000000e-001 7.50000000e-001 0. 5.00000000e-001 1.87500000e-001
      5.00000000e-001 8.75000000e-001 4.37500000e-001 9.37500000e-001</_>
    <_>
      0. 5.00000000e-001 7.50000000e-001 0. 0. 0. 7.50000000e-001 1.
      1.87500000e-001 0. 0. 6.87500000e-001 1. 2.50000000e-001 0. 0.
      5.00000000e-001 1. 2.50000000e-001 0. 0. 7.50000000e-001 1.
      2.50000000e-001 0. 0. 6.25000000e-001 1. 4.37500000e-001 0. 0.
      5.00000000e-001 1. 5.00000000e-001 0. 0. 5.00000000e-001 1.
      5.00000000e-001 0. 0. 4.37500000e-001 1. 6.25000000e-001 0. 0. 0.
      3.12500000e-001 1.25000000e-001 0.</_>
    <_>
      0. 1.87500000e-001 5.62500000e-001 0. 6.25000000e-002 0.
      2.50000000e-001 1. 0. 5.00000000e-001 0. 2.50000000e-001
      8.75000000e-001 0. 6.25000000e-001 0. 2.50000000e-001
      7.50000000e-001 0. 5.62500000e-001 0. 6.25000000e-002 1. 0.
      5.00000000e-001 0. 0. 1. 0. 5.00000000e-001 0. 0. 1. 0.
      5.00000000e-001 0. 0. 1. 0. 3.12500000e-001 0. 0. 8.12500000e-001
      0. 6.25000000e-002 0. 0. 5.00000000e-001 0. 0.</_>
    <_>
      0. 0. 5.00000000e-001 1.87500000e-001 0. 0. 0. 1. 5.62500000e-001
      0. 0. 0. 1. 1.25000000e-001 0. 0. 1.87500000e-001 1. 0. 0. 0.
      2.50000000e-001 9.37500000e-001 0. 0. 0. 4.37500000e-001
      7.50000000e-001 0. 0. 0. 5.00000000e-001 7.50000000e-001 0. 0. 0.
      5.00000000e-001 7.50000000e-001 0. 0. 0. 6.25000000e-001
      5.62500000e-001 0. 0. 0. 5.62500000e-001 3.75000000e-001 0. 0.</_>
    <_>
      0. 1.87500000e-001 1. 0. 0. 0. 2.50000000e-001 1. 0. 0. 0.
      2.50000000e-001 8.75000000e-001 0. 0. 0. 2.50000000e-001
      7.50000000e-001 0. 0. 0. 2.50000000e-001 7.50000000e-001 0. 0. 0.
      2.50000000e-001 7.50000000e-001 0. 0. 0. 2.50000000e-001
      7.50000000e-001 0. 0. 0. 2.50000000e-001 7.50000000e-001 0. 0. 0.
      2.50000000e-001 7.50000000e-001 0. 0. 0. 6.25000000e-002
      3.75000000e-001 0. 0.</_>
    <_>
      0. 5.00000000e-001 1. 1.87500000e-001 0. 0. 5.00000000e-001 1.
      6.25000000e-002 0. 0. 5.00000000e-001 1. 0. 0. 0. 5.00000000e-001
      1. 0. 0. 0. 5.00000000e-001 1. 2.50000000e-001 0. 0.
      5.00000000e-001 1. 1.25000000e-001 0. 0. 5.00000000e-001 1.
      6.25000000e-002 0. 0. 3.12500000e-001 1. 2.50000000e-001 0. 0.
      2.50000000e-001 1. 2.50000000e-001 0. 0. 1.25000000e-001
      8.75000000e-001 1.25000000e-001 0.</_>
    <_>
      0. 1.25000000e-001 0. 0. 0. 0. 6.25000000e-001 2.50000000e-001 0.
      0. 0. 6.87500000e-001 2.50000000e-001 0. 0. 0. 7.50000000e-001 0.
      0. 0. 0. 7.50000000e-001 0. 0. 0. 0. 7.50000000e-001 0. 0. 0. 0.
      7.50000000e-001 0. 0. 0. 0. 7.50000000e-001 0. 0. 0. 0.
      7.50000000e-001 0. 0. 0. 0. 5.00000000e-001 0. 0. 0.</_>
    <_>
      0. 0. 2.50000000e-001 4.37500000e-001 0. 0. 0. 5.00000000e-001
      7.50000000e-001 0. 0. 0. 5.00000000e-001 9.37500000e-001 0. 0. 0.
      5.00000000e-001 8.75000000e-001 0. 0. 0. 5.00000000e-001
      7.50000000e-001 0. 0. 0. 5.00000000e-001 7.50000000e-001 0. 0. 0.
      5.00000000e-001 9.37500000e-001 0. 0. 0. 5.00000000e-001 1. 0. 0.
      0. 5.00000000e-001 1. 0. 0. 0. 6.25000000e-002 4.37500000e-001 0.</_>
    <_>
      0. 3.75000000e-001 1. 1.25000000e-001 0. 0. 5.00000000e-001 1.
      2.50000000e-001 0. 0. 5.00000000e-001 1. 2.50000000e-001 0. 0.
      5.00000000e-001 1. 2.50000000e-001 0. 0. 5.00000000e-001 1.
      2.50000000e-001 0. 0. 5.00000000e-001 1. 2.50000000e-001 0. 0.
      2.50000000e-001 1. 2.50000000e-001 0. 0. 2.50000000e-001 1.
      2.50000000e-001 0. 0. 4.37500000e-001 9.37500000e-001 0. 0. 0.
      3.75000000e-001 6.25000000e-001 0. 0.</_>
    <_>
      0. 0. 8.75000000e-001 2.50000000e-001 0. 0. 0. 1. 2.50000000e-001
      0. 0. 0. 1. 6.25000000e-002 0. 0. 0. 1. 0. 0. 0. 0. 1. 0. 0. 0. 0.
      1. 0. 0. 0. 0. 8.12500000e-001 0. 0. 0. 0. 7.50000000e-001 0. 0.
      0. 0. 7.50000000e-001 0. 0. 0. 0. 3.12500000e-001 0. 0.</_>
    <_>
      0. 5.00000000e-001 8.75000000e-001 0. 2.50000000e-001 0.
      5.00000000e-001 1. 0. 1.25000000e-001 0. 3.75000000e-001 1. 0. 0.
      0. 2.50000000e-001 1. 0. 0. 0. 2.50000000e-001 1. 0. 0. 0.
      2.50000000e-001 1. 0. 0. 0. 2.50000000e-001 1. 0. 0. 0.
      2.50000000e-001 1. 6.25000000e-002 0. 0. 1.87500000e-001 1.
      2.50000000e-001 0. 0. 0. 9.37500000e-001 6.25000000e-002 0.</_>
    <_>
      0. 0. 9.37500000e-001 0. 0. 0. 0. 1. 0. 0. 1.87500000e-001 0. 1.
      0. 0. 2.50000000e-001 0. 1. 0. 0. 2.50000000e-001 0. 1. 0. 0.
      1.87500000e-001 0. 1. 0. 0. 0. 0. 8.75000000e-001 0. 0. 0. 0.
      7.50000000e-001 0. 0. 0. 0. 7.50000000e-001 0. 0. 0. 0.
      6.87500000e-001 0. 0.</_>
    <_>
      0. 6.25000000e-001 7.50000000e-001 0. 0. 0. 5.00000000e-001 1.
      6.25000000e-002 0. 0. 5.00000000e-001 1. 2.50000000e-001 0. 0.
      2.50000000e-001 1. 2.50000000e-001 0. 0. 2.50000000e-001 1.
      2.50000000e-001 0. 0. 1.25000000e-001 1. 4.37500000e-001 0. 0. 0.
      1. 5.00000000e-001 0. 0. 0. 1. 5.00000000e-001 0. 0. 0. 1.
      7.50000000e-001 0. 5.00000000e-001 6.87500000e-001 1. 1.
      5.00000000e-001</_>
    <_>
      0. 5.00000000e-001 5.00000000e-001 0. 0. 0. 5.62500000e-001
      5.00000000e-001 0. 0. 0. 5.00000000e-001 5.00000000e-001 0. 0. 0.
      5.00000000e-001 7.50000000e-001 0. 0. 0. 5.00000000e-001
      7.50000000e-001 0. 0. 0. 5.00000000e-001 7.50000000e-001 0. 0. 0.
      5.00000000e-001 7.50000000e-001 0. 0. 0. 5.00000000e-001
      7.50000000e-001 0. 0. 0. 5.00000000e-001 7.50000000e-001 0. 0. 0.
      3.75000000e-001 8.12500000e-001 1.25000000e-001 0.</_>
    <_>
      0. 0. 3.75000000e-001 9.37500000e-001 0. 0. 0. 6.25000000e-001
      8.12500000e-001 0. 0. 0. 7.50000000e-001 6.87500000e-001 0. 0. 0.
      1. 5.00000000e-001 0. 0. 1.87500000e-001 1. 3.12500000e-001 0. 0.
      2.50000000e-001 1. 6.25000000e-002 0. 0. 4.37500000e-001
      9.37500000e-001 0. 0. 0. 6.87500000e-001 7.50000000e-001 0. 0. 0.
      8.75000000e-001 6.87500000e-001 0. 0. 0. 9.37500000e-001
      3.12500000e-001 0. 0.</_>
    <_>
      0. 6.25000000e-002 1. 4.37500000e-001 0. 0. 0. 1. 5.00000000e-001
      0. 0. 0. 1. 2.50000000e-001 0. 0. 0. 1. 2.50000000e-001 0. 0.
      2.50000000e-001 1. 1.25000000e-001 0. 0. 2.50000000e-001 1. 0. 0.
      0. 5.00000000e-001 1. 0. 0. 0. 5.00000000e-001 8.12500000e-001 0.
      0. 0. 5.00000000e-001 7.50000000e-001 0. 0. 0. 3.12500000e-001
      5.00000000e-001 0. 0.</_>
    <_>
      0. 1.87500000e-001 1. 3.75000000e-001 0. 0. 2.50000000e-001 1.
      5.00000000e-001 0. 0. 2.50000000e-001 1. 5.00000000e-001 0. 0.
      3.12500000e-001 1. 5.00000000e-001 0. 0. 5.00000000e-001 1.
      3.12500000e-001 0. 0. 5.62500000e-001 1. 6.25000000e-002 0. 0.
      7.50000000e-001 1. 0. 0. 0. 5.00000000e-001 1. 0. 0. 0.
      3.75000000e-001 1. 2.50000000e-001 0. 0. 1.25000000e-001
      7.50000000e-001 6.25000000e-002 0.</_>
    <_>
      0. 2.50000000e-001 6.25000000e-002 0. 0. 0. 1.25000000e-001
      6.87500000e-001 0. 0. 0. 2.50000000e-001 7.50000000e-001 0. 0. 0.
      2.50000000e-001 7.50000000e-001 0. 0. 0. 2.50000000e-001
      7.50000000e-001 0. 0. 0. 2.50000000e-001 7.50000000e-001 0. 0. 0.
      2.50000000e-001 7.50000000e-001 0. 0. 0. 2.50000000e-001
      8.12500000e-001 0. 0. 0. 2.50000000e-001 9.37500000e-001 0. 0. 0.
      2.50000000e-001 1. 0. 0.</_>
    <_>
      0. 1. 2.50000000e-001 0. 2.50000000e-001 1.25000000e-001 1.
      5.62500000e-001 0. 2.50000000e-001 2.50000000e-001 1.
      8.75000000e-001 0. 2.50000000e-001 1.25000000e-001 1. 1.
      1.25000000e-001 1.87500000e-001 0. 6.87500000e-001 1.
      2.50000000e-001 0. 0. 5.00000000e-001 1. 5.00000000e-001 0. 0.
      2.50000000e-001 1. 7.50000000e-001 0. 0. 1.87500000e-001 1.
      8.75000000e-001 0. 0. 0. 8.75000000e-001 1. 0. 0. 0.
      1.87500000e-001 7.50000000e-001 0.</_>
    <_>
      0. 7.50000000e-001 9.37500000e-001 1.25000000e-001 0. 0.
      7.50000000e-001 1. 2.50000000e-001 0. 0. 7.50000000e-001 1.
      2.50000000e-001 0. 0. 6.25000000e-001 1. 2.50000000e-001 0. 0.
      5.00000000e-001 1. 2.50000000e-001 0. 0. 5.00000000e-001 1.
      3.75000000e-001 0. 0. 5.00000000e-001 1. 5.00000000e-001 0. 0.
      4.37500000e-001 1. 5.00000000e-001 0. 0. 3.12500000e-001 1.
      6.25000000e-001 0. 5.00000000e-001 4.37500000e-001 1.
      8.75000000e-001 2.50000000e-001</_>
    <_>
      0. 1.87500000e-001 1. 0. 0. 0. 0. 1. 0. 0. 0. 0. 1. 0. 0. 0. 0. 1.
      1.87500000e-001 0. 0. 0. 1. 2.50000000e-001 0. 0. 0.
      8.75000000e-001 2.50000000e-001 0. 0. 0. 7.50000000e-001
      2.50000000e-001 0. 0. 0. 8.75000000e-001 2.50000000e-001 0. 0. 0.
      1. 0. 0. 0. 0. 9.37500000e-001 0. 0.</_>
    <_>
      0. 0. 7.50000000e-001 7.50000000e-001 0. 0. 0. 7.50000000e-001
      7.50000000e-001 0. 0. 0. 7.50000000e-001 5.62500000e-001 0. 0. 0.
      7.50000000e-001 5.00000000e-001 0. 0. 0. 7.50000000e-001
      5.00000000e-001 0. 0. 0. 7.50000000e-001 5.00000000e-001 0. 0. 0.
      7.50000000e-001 5.00000000e-001 0. 0. 0. 7.50000000e-001
      5.00000000e-001 0. 0. 0. 7.50000000e-001 5.00000000e-001 0. 0. 0.
      1.87500000e-001 2.50000000e-001 0.</_>
    <_>
      0. 3.75000000e-001 1. 3.75000000e-001 0. 0. 5.00000000e-001 1.
      5.00000000e-001 0. 0. 3.75000000e-001 1. 5.00000000e-001 0. 0.
      2.50000000e-001 1. 5.00000000e-001 0. 0. 2.50000000e-001 1.
      5.00000000e-001 0. 0. 2.50000000e-001 1. 5.00000000e-001 0. 0.
      2.50000000e-001 1. 5.00000000e-001 0. 0. 4.37500000e-001 1.
      5.00000000e-001 0. 0. 5.00000000e-001 1. 5.00000000e-001 0. 0.
      3.12500000e-001 1. 4.37500000e-001 0.</_>
    <_>
      0. 7.50000000e-001 1. 6.25000000e-001 0. 0. 7.50000000e-001 1.
      7.50000000e-001 0. 0. 7.50000000e-001 1. 6.87500000e-001 0. 0.
      7.50000000e-001 1. 6.25000000e-001 0. 0. 5.62500000e-001 1.
      7.50000000e-001 0. 0. 5.00000000e-001 1. 7.50000000e-001 0. 0.
      5.00000000e-001 1. 7.50000000e-001 0. 0. 5.00000000e-001 1.
      6.87500000e-001 0. 0. 5.00000000e-001 1. 5.00000000e-001 0. 0.
      4.37500000e-001 1. 5.00000000e-001 0.</_>
    <_>
      0. 7.50000000e-001 1. 6.87500000e-001 0. 0. 6.25000000e-001 1.
      7.50000000e-001 0. 0. 5.00000000e-001 1. 7.50000000e-001 0. 0.
      5.00000000e-001 1. 7.50000000e-001 0. 0. 4.37500000e-001 1.
      7.50000000e-001 0. 0. 2.50000000e-001 1. 5.00000000e-001 0. 0.
      2.50000000e-001 1. 5.00000000e-001 0. 0. 2.50000000e-001 1.
      5.00000000e-001 0. 0. 5.00000000e-001 1. 5.00000000e-001 0. 0.
      4.37500000e-001 1. 4.37500000e-001 0.</_>
    <_>
      0. 1.25000000e-001 1. 6.25000000e-001 0. 0. 2.50000000e-001 1.
      7.50000000e-001 0. 0. 2.50000000e-001 1. 5.00000000e-001 0. 0.
      2.50000000e-001 1. 5.00000000e-001 0. 0. 2.50000000e-001 1.
      5.00000000e-001 0. 0. 2.50000000e-001 1. 3.12500000e-001 0. 0.
      2.50000000e-001 1. 2.50000000e-001 0. 0. 5.00000000e-001 1.
      2.50000000e-001 0. 0. 5.00000000e-001 1. 0. 0. 0. 3.12500000e-001
      7.50000000e-001 0. 0.</_>
    <_>
      0. 7.50000000e-001 1. 3.12500000e-001 0. 0. 6.25000000e-001 1.
      2.50000000e-001 0. 0. 5.00000000e-001 1. 2.50000000e-001 0. 0.
      5.00000000e-001 1. 2.50000000e-001 0. 0. 5.00000000e-001 1.
      5.00000000e-001 0. 0. 5.00000000e-001 1. 5.00000000e-001 0. 0.
      5.00000000e-001 1. 5.00000000e-001 0. 0. 5.00000000e-001 1.
      2.50000000e-001 0. 0. 5.00000000e-001 1. 2.50000000e-001 0. 0.
